0.009731824509799480
-0.035565484315156937
-0.029736729338765144
-0.009244218468666077
-0.030539987608790398
-0.038839377462863922
-0.052133005112409592
-0.030644757673144341
-0.000529229931998998
-0.005407115444540977
0.007265632972121239
0.050901740789413452
0.004458881448954344
-0.013775686733424664
-0.015859503298997879
0.008549748919904232
0.012461178936064243
-0.017599375918507576
-0.047368157655000687
0.028929760679602623
0.014796867035329342
0.015161531046032906
-0.001819682423956692
0.023881208151578903
-0.064306892454624176
-0.048175498843193054
0.013132504187524319
-0.009986598044633865
-0.024215457960963249
-0.062163151800632477
0.017753427848219872
0.007076978683471680
-0.012553113512694836
0.015591980889439583
-0.011226753704249859
-0.008169230073690414
-0.045972105115652084
-0.003696685889735818
0.011820798739790916
0.000560644606593996
-0.044710543006658554
-0.006067076232284307
-0.038696281611919403
-0.055363722145557404
-0.054649084806442261
-0.036123055964708328
-0.028009299188852310
0.007658658549189568
-0.011874550022184849
0.046149421483278275
-0.008827834390103817
0.009250369854271412
-0.027092734351754189
0.025373868644237518
-0.006897228304296732
-0.008384008891880512
-0.007921561598777771
-0.007016555871814489
-0.055296573787927628
0.000653160212095827
0.025580981746315956
0.000443809723947197
-0.036662459373474121
-0.024537188932299614
0.023067804053425789
-0.017505796626210213
-0.019479321315884590
-0.007825911045074463
-0.011911061592400074
-0.053060851991176605
0.016302334144711494
0.035232473164796829
0.022578032687306404
-0.019515862688422203
-0.030776314437389374
-0.033993266522884369
-0.018952144309878349
0.009309222921729088
-0.031100474298000336
-0.024382460862398148
-0.009050398133695126
-0.026823544874787331
-0.005305323749780655
0.004778211470693350
-0.023336848244071007
0.030056174844503403
-0.017138063907623291
-0.010846529155969620
0.006293498910963535
0.042443323880434036
0.022733641788363457
0.000032186799217016
-0.030376121401786804
-0.002837219042703509
0.016940234228968620
-0.035116136074066162
-0.027555420994758606
-0.002304026857018471
-0.032593302428722382
-0.069524958729743958
