0.008186570368707180,-0.034241661429405212,0.092990726232528687,-0.036936175078153610,0.000962516060099006,-0.028350168839097023,0.001515621319413185,-0.044797431677579880,-0.020648343488574028,-0.081664271652698517,-0.054604925215244293,0.159935340285301208,-0.036082427948713303,-0.085011489689350128,0.024302206933498383,0.002300574211403728,0.020349198952317238,0.006620190106332302,0.008121519349515438,-0.018996920436620712,0.073846600949764252,-0.016188940033316612,-0.114857196807861328,0.058350946754217148,-0.028617581352591515,0.057726364582777023,0.099813930690288544,0.030442494899034500,-0.059743124991655350,-0.062462121248245239,0.017648775130510330,-0.079280681908130646,-0.060226421803236008,-0.030701361596584320,0.013273149728775024,-0.131223186850547791,-0.130620449781417847,-0.039367772638797760,0.041967786848545074,0.007468158379197121,-0.040226399898529053,-0.027046358212828636,-0.046166937798261642,-0.006244147196412086,-0.002286643255501986,-0.069972299039363861,0.056978859007358551,-0.088040024042129517,0.017811734229326248,-0.013127102516591549,0.040359187871217728,0.009842542931437492,-0.044477324932813644,-0.019312594085931778,-0.097952216863632202,-0.128460690379142761,-0.024367446079850197,0.029509486630558968,-0.023679764941334724,0.117624685168266296,-0.024117169901728630,-0.017244670540094376,-0.020806930959224701,-0.044732272624969482,-0.074516199529170990,0.005984211340546608,-0.030741155147552490,-0.008337229490280151,0.057399909943342209,0.011891727335751057,-0.006233686581254005,0.029591772705316544,-0.058326844125986099,-0.079731039702892303,-0.076335199177265167,-0.054211605340242386,0.043200124055147171,0.018986770883202553,0.026065872982144356,-0.016290647909045219,0.099713802337646484,-0.014050903730094433,-0.031361553817987442,-0.009528117254376411,-0.033623065799474716,0.110894396901130676,0.095730602741241455,0.078425735235214233,0.028671985492110252,-0.081957355141639709,0.050442684441804886,0.045146074146032333,0.023607723414897919,0.186894923448562622,-0.058613907545804977,-0.092636182904243469,-0.076339937746524811,-0.045907057821750641,-0.013566289097070694,-0.041855745017528534
-0.129077240824699402,0.036016210913658142,0.213322520256042480,0.042932361364364624,-0.151387542486190796,-0.021560557186603546,0.089416898787021637,-0.157581925392150879,0.073702901601791382,-0.122628711163997650,-0.106382451951503754,0.050265002995729446,-0.199369177222251892,-0.018697984516620636,0.099834427237510681,0.117643184959888458,0.017234988510608673,0.035379152745008469,-0.091555662453174591,-0.027868181467056274,0.025464197620749474,-0.102761059999465942,-0.031029712408781052,-0.166716799139976501,-0.068394601345062256,0.032535597681999207,0.102727778255939484,0.037541229277849197,0.072404839098453522,-0.043439950793981552,0.020813787356019020,-0.138321116566658020,0.028903437778353691,-0.114057242870330811,0.232293814420700073,0.025694213807582855,-0.017590861767530441,0.067499369382858276,0.023679206147789955,-0.006070026662200689,-0.095590978860855103,-0.048149038106203079,-0.090915128588676453,-0.119897007942199707,0.062805615365505219,0.069341868162155151,0.027615996077656746,0.038338162004947662,-0.092099517583847046,-0.039836715906858444,0.038848765194416046,-0.122279651463031769,0.041116781532764435,-0.027071757242083549,-0.037888731807470322,0.136068165302276611,-0.017289670184254646,-0.052203640341758728,0.031840663403272629,0.176670044660568237,-0.057094756513834000,-0.118563935160636902,0.043283078819513321,0.001100736553780735,0.140279114246368408,0.044447511434555054,-0.047828424721956253,-0.006236331071704626,0.041289459913969040,-0.011574501171708107,-0.017326392233371735,0.073275767266750336,0.128901258111000061,0.036312766373157501,-0.093955352902412415,-0.057524055242538452,-0.091450199484825134,-0.036690015345811844,0.156394064426422119,-0.013660271652042866,-0.084166787564754486,-0.284034937620162964,0.226046934723854065,-0.050135802477598190,-0.033492274582386017,0.107340551912784576,-0.039109881967306137,0.115081712603569031,-0.033210176974534988,-0.123827874660491943,0.085116855800151825,0.006860164925456047,-0.023995811119675636,-0.014557189308106899,-0.275299906730651855,0.096904598176479340,0.123258359730243683,-0.045966900885105133,0.046054694801568985,-0.004599920473992825
-0.058688145130872726,0.007551193237304688,0.130308493971824646,0.015961823984980583,-0.004172009415924549,0.050509873777627945,0.002331587951630354,-0.143308296799659729,0.109333418309688568,-0.056801892817020416,0.011853327974677086,0.155984744429588318,-0.166879087686538696,-0.029591649770736694,0.018739920109510422,0.046262759715318680,-0.049634151160717010,0.032601505517959595,-0.053065210580825806,0.027562702074646950,-0.047202311456203461,-0.036924447864294052,-0.038429871201515198,-0.139700129628181458,0.017601864412426949,-0.152121812105178833,0.150614246726036072,0.106279335916042328,-0.022654606029391289,-0.009928843937814236,-0.108010880649089813,-0.108258530497550964,0.036927249282598495,-0.109916292130947113,0.129449903964996338,-0.040887027978897095,0.014090027660131454,0.028406156226992607,0.065401814877986908,0.009133743122220039,-0.012951164506375790,-0.037651974707841873,0.009129416197538376,-0.055656820535659790,-0.007665679324418306,-0.082623034715652466,0.115440011024475098,-0.034733884036540985,-0.095612727105617523,0.062239862978458405,-0.049131728708744049,-0.152395948767662048,0.020790785551071167,0.072057187557220459,0.029310081154108047,0.019244279712438583,0.059445660561323166,-0.032105423510074615,0.014972186647355556,0.209439158439636230,0.066340312361717224,-0.068820782005786896,-0.001978188985958695,0.004587142262607813,0.041431207209825516,-0.028294555842876434,0.016673265025019646,0.053135722875595093,-0.089385464787483215,-0.002509163226932287,0.105825394392013550,0.079560421407222748,-0.049073841422796249,0.046877454966306686,0.041790597140789032,-0.087018817663192749,-0.149654895067214966,0.115436643362045288,0.024215752258896828,-0.029475962743163109,-0.024593621492385864,-0.171849027276039124,0.041233148425817490,-0.063377819955348969,-0.010053548961877823,0.107308745384216309,0.039039138704538345,0.102641120553016663,0.065277010202407837,-0.153673306107521057,0.094164215028285980,-0.085687741637229919,-0.016032299026846886,-0.009452432394027710,-0.219309478998184204,-0.000383301230613142,0.190275102853775024,0.013691391795873642,0.052345462143421173,-0.023030627518892288
0.045229453593492508,0.005800636485219002,-0.080279707908630371,-0.036556668579578400,-0.021367337554693222,0.007432550191879272,0.008150720037519932,-0.005739652086049318,0.036648444831371307,-0.134845793247222900,-0.057977918535470963,-0.048857282847166061,0.024685973301529884,0.028005810454487801,-0.104285672307014465,-0.053995177149772644,0.141774564981460571,0.025734404101967812,-0.060690395534038544,0.126779019832611084,-0.102487489581108093,-0.031099965795874596,-0.116614438593387604,0.107972040772438049,0.034111808985471725,-0.149954766035079956,-0.043123275041580200,-0.045614153146743774,-0.032842572778463364,-0.040487948805093765,0.115094892680644989,-0.074562549591064453,-0.016520241275429726,-0.025431744754314423,-0.098634831607341766,0.173846215009689331,-0.025132151320576668,-0.050615023821592331,-0.024012256413698196,0.038410928100347519,-0.003738081781193614,0.085250549018383026,0.038636181503534317,-0.132664278149604797,-0.007929126732051373,-0.096851862967014313,0.145580768585205078,0.075662553310394287,0.032286372035741806,0.083715915679931641,0.016756530851125717,-0.056834552437067032,-0.113620661199092865,-0.002955410629510880,-0.181913286447525024,0.011476282961666584,-0.017040695995092392,-0.048580229282379150,-0.047305461019277573,-0.154830023646354675,-0.017194168642163277,0.068190932273864746,-0.036628395318984985,0.011516712605953217,-0.079734973609447479,-0.006572206504642963,-0.082067295908927917,-0.040448766201734543,-0.094176247715950012,-0.026222033426165581,-0.070627816021442413,0.179530993103981018,-0.172316357493400574,-0.065450206398963928,-0.034035813063383102,-0.211246445775032043,0.021712366491556168,-0.151807263493537903,0.053722593933343887,0.049755088984966278,-0.091830469667911530,-0.075555883347988129,-0.013749623671174049,0.034279379993677139,0.011400171555578709,-0.041953749954700470,0.054771173745393753,-0.007337681017816067,-0.173967927694320679,0.006772425957024097,0.002285638824105263,-0.158370763063430786,-0.031798984855413437,0.006155335344374180,0.040855400264263153,0.094762548804283142,0.118195839226245880,0.013654350303113461,-0.032592467963695526,-0.064536303281784058
-0.004215199500322342,-0.049700640141963959,-0.083151139318943024,0.025914490222930908,-0.165194496512413025,-0.025359850376844406,0.042294505983591080,-0.008772120811045170,-0.110528036952018738,-0.093694821000099182,-0.264902174472808838,0.126235648989677429,-0.014589920639991760,-0.034688621759414673,-0.062268067151308060,0.170963466167449951,0.096106648445129395,0.068760000169277191,-0.103366471827030182,0.032434318214654922,-0.052914410829544067,-0.017042184248566628,0.113430358469486237,-0.139349594712257385,-0.041843891143798828,-0.089132241904735565,-0.092384509742259979,-0.153416827321052551,0.051168352365493774,-0.023926742374897003,0.088800154626369476,-0.095550760626792908,0.020248850807547569,0.024624343961477280,-0.076074898242950439,0.139428630471229553,-0.117493525147438049,-0.153972446918487549,0.210049241781234741,0.024024292826652527,-0.071826793253421783,-0.033653475344181061,-0.020832786336541176,-0.190222352743148804,0.019267318770289421,-0.005988864693790674,-0.069991558790206909,-0.098928213119506836,0.118830181658267975,0.212751671671867371,-0.024338247254490852,-0.088867411017417908,-0.121364191174507141,0.022462390363216400,-0.032343246042728424,-0.106492258608341217,0.028428163379430771,0.034318108111619949,-0.025070307776331902,0.019634537398815155,-0.061719406396150589,-0.021412577480077744,0.026409804821014404,-0.018489271402359009,0.194921687245368958,0.012437256053090096,-0.189837098121643066,-0.029953088611364365,0.213707864284515381,0.001336677232757211,0.334963977336883545,0.235266461968421936,0.121750272810459137,-0.100507885217666626,-0.132590293884277344,-0.005871525034308434,-0.042509350925683975,-0.178275629878044128,0.119190499186515808,0.057832937687635422,0.098422870039939880,0.082018427550792694,0.011016733013093472,-0.129722550511360168,0.012239901348948479,-0.004937395453453064,0.181793004274368286,0.018017800524830818,-0.077375695109367371,-0.019081674516201019,0.071180090308189392,0.075344465672969818,0.039442919194698334,0.094421304762363434,-0.195027247071266174,0.039705239236354828,0.179793193936347961,0.005204118788242340,-0.044847950339317322,-0.075693629682064056
-0.000796838838141412,-0.030428517609834671,-0.017052443698048592,0.026872012764215469,0.018024187535047531,-0.002897253027185798,0.102703280746936798,-0.014336764812469482,-0.146796137094497681,-0.094545245170593262,0.086694136261940002,-0.020505167543888092,-0.052191011607646942,0.015553357079625130,0.036993950605392456,-0.000839323212858289,0.076250419020652771,0.048303913325071335,0.052071258425712585,-0.070274330675601959,-0.007502220105379820,-0.058055792003870010,-0.025144124403595924,0.121720187366008759,0.030454404652118683,0.004651948809623718,0.024246307089924812,0.020206896588206291,0.067758560180664062,-0.181713685393333435,0.129707232117652893,-0.066349789500236511,0.023896122351288795,-0.003253775881603360,0.057240154594182968,0.070155099034309387,0.041113153100013733,0.033974785357713699,-0.030571237206459045,-0.053378429263830185,0.031025234609842300,-0.126390203833580017,-0.113837584853172302,0.018650291487574577,-0.029261110350489616,-0.011113204993307590,0.019332090392708778,0.125520721077919006,-0.031724430620670319,-0.239455923438072205,-0.010246328078210354,0.052774317562580109,0.046536847949028015,0.092083141207695007,-0.011695430614054203,0.045587629079818726,-0.047981265932321548,-0.033599290996789932,0.030579304322600365,-0.025612264871597290,0.011335426941514015,-0.035297460854053497,-0.060269128531217575,-0.029459558427333832,-0.136444434523582458,0.035336069762706757,-0.066926501691341400,-0.025193257257342339,-0.119900330901145935,-0.075450114905834198,0.080780230462551117,-0.054097633808851242,-0.042533669620752335,-0.115770243108272552,0.025612369179725647,0.003942841663956642,0.022866323590278625,0.071291200816631317,-0.093473695218563080,0.027227537706494331,-0.034915819764137268,0.020112700760364532,-0.208450883626937866,-0.085577227175235748,0.061052810400724411,0.094936341047286987,-0.047658167779445648,-0.073768079280853271,-0.064704097807407379,0.019449528306722641,-0.025128614157438278,0.086152255535125732,-0.024892792105674744,-0.107904896140098572,0.059365469962358475,-0.019156288355588913,-0.011226332746446133,0.004210112150758505,-0.015446946956217289,0.020963527262210846
0.033967293798923492,0.044877555221319199,0.133131995797157288,-0.040589086711406708,0.006472083739936352,-0.042299199849367142,0.106295391917228699,-0.045183993875980377,-0.009214957244694233,-0.190100431442260742,0.119281090795993805,0.093195766210556030,0.087933689355850220,-0.098126478493213654,0.185895800590515137,-0.080610804259777069,0.109629921615123749,0.086419440805912018,0.015954473987221718,-0.015575518831610680,-0.059155564755201340,-0.022590219974517822,-0.022403474897146225,-0.091616727411746979,-0.041717957705259323,-0.025642223656177521,0.110785223543643951,0.008776469156146049,0.016591656953096390,-0.083535529673099518,0.044395465403795242,-0.121937267482280731,-0.023682061582803726,-0.015599726699292660,0.121225312352180481,0.087662234902381897,-0.005740617867559195,-0.031367488205432892,0.044250752776861191,0.041119769215583801,-0.021847732365131378,-0.062428273260593414,-0.066179655492305756,-0.007891270332038403,-0.026184173300862312,-0.023220481351017952,-0.033257391303777695,-0.018373062834143639,0.088786959648132324,-0.132361784577369690,0.014981757849454880,-0.079188562929630280,0.202370852231979370,0.035717677325010300,-0.079480998218059540,0.015872815623879433,-0.003529200330376625,0.016860453411936760,0.023549243807792664,0.075590126216411591,-0.049910396337509155,-0.069629006087779999,-0.053876556456089020,0.047359786927700043,-0.055539172142744064,-0.006894751451909542,-0.060634173452854156,0.032739132642745972,-0.153977990150451660,-0.045176696032285690,0.033338166773319244,-0.002037460217252374,-0.034768927842378616,-0.158857971429824829,-0.002435744507238269,-0.094874314963817596,-0.111498251557350159,0.018824817612767220,-0.009374326094985008,-0.000880482082720846,-0.073436282575130463,0.012740763835608959,-0.077867224812507629,-0.116396740078926086,0.025491820648312569,0.008257506415247917,-0.070997580885887146,-0.026329739019274712,-0.043510846793651581,-0.035991802811622620,0.010476257652044296,-0.006476439535617828,-0.028352595865726471,-0.063275985419750214,-0.069001033902168274,0.001593543915078044,0.009869586676359177,0.001140492502599955,0.005228072870522738,-0.036536715924739838
-0.068207919597625732,0.021102696657180786,0.052172049880027771,0.010602818801999092,-0.107198782265186310,-0.008853741921484470,0.026097571477293968,-0.118845865130424500,0.107533566653728485,-0.030114240944385529,-0.123097836971282959,0.033571071922779083,0.037187151610851288,-0.112190887331962585,0.149242267012596130,0.080802746117115021,-0.015083260834217072,-0.039332635700702667,0.008769874460995197,-0.069584801793098450,-0.153620526194572449,0.023290839046239853,-0.108859159052371979,-0.122599221765995026,0.079756416380405426,0.047312874346971512,-0.018151808530092239,-0.064737200736999512,0.062710434198379517,-0.145413339138031006,-0.099931046366691589,-0.122681401669979095,0.058782853186130524,-0.016128947958350182,0.089495778083801270,-0.013089364394545555,-0.016988974064588547,0.073684640228748322,-0.056599024683237076,0.037201385945081711,0.034238416701555252,-0.036391805857419968,-0.025292264297604561,-0.184853360056877136,0.071804761886596680,0.077729307115077972,-0.032769225537776947,0.064014501869678497,0.079898603260517120,0.117520883679389954,-0.012008333578705788,-0.109741330146789551,-0.051178473979234695,0.004295110236853361,0.120829001069068909,0.002010868629440665,-0.027863698080182076,0.041884530335664749,0.031259540468454361,0.246666967868804932,-0.200341686606407166,-0.017902057617902756,0.026006769388914108,-0.029639290645718575,0.020460261031985283,-0.024201562628149986,-0.102177836000919342,-0.012226506136357784,0.180356204509735107,0.035128887742757797,-0.009071600623428822,0.108926661312580109,0.117318004369735718,0.008776054717600346,-0.053221900016069412,-0.012222250923514366,0.089332737028598785,0.105544641613960266,0.032559748739004135,-0.088480666279792786,0.128810316324234009,-0.155347540974617004,0.075562112033367157,-0.013029012829065323,-0.043472278863191605,0.075402051210403442,0.176407888531684875,0.034504443407058716,0.030680384486913681,-0.073987349867820740,-0.042172905057668686,0.084100417792797089,0.048430062830448151,-0.014849160797894001,-0.239004611968994141,-0.005345315672457218,0.100367851555347443,0.001468837261199951,0.007001521531492472,0.063347183167934418
0.071322999894618988,-0.025576418265700340,-0.022578816860914230,0.008471846580505371,-0.030248625203967094,0.021763114258646965,0.097634613513946533,0.018074508756399155,-0.037767622619867325,-0.046393968164920807,-0.002365078078582883,-0.130560636520385742,0.063554145395755768,-0.098492562770843506,0.029194191098213196,-0.060699552297592163,0.186860561370849609,0.058646991848945618,0.028652600944042206,-0.004447341430932283,-0.092364124953746796,-0.152567088603973389,0.089488461613655090,-0.022593976929783821,0.040139272809028625,-0.114535190165042877,-0.007164882030338049,0.085966750979423523,0.185949265956878662,0.009722631424665451,0.030689846724271774,-0.096761621534824371,-0.006625909358263016,-0.013619991950690746,0.029267609119415283,0.069591104984283447,-0.055243048816919327,0.098155945539474487,0.198090165853500366,0.039512705057859421,-0.075974881649017334,0.004428094252943993,0.134804412722587585,0.063430450856685638,-0.013817009516060352,-0.022325811907649040,-0.075508430600166321,0.139805182814598083,-0.022135576233267784,-0.074192367494106293,0.001840326003730297,0.034431915730237961,0.163287192583084106,-0.083286792039871216,-0.153816223144531250,0.049459241330623627,0.042356144636869431,0.021308857947587967,-0.044096633791923523,0.059134498238563538,-0.104054406285285950,-0.086126439273357391,-0.001994368620216846,-0.028540309518575668,0.050064835697412491,0.005522373598068953,-0.130582153797149658,0.046751167625188828,-0.153850018978118896,-0.041050784289836884,-0.038899857550859451,-0.013024910353124142,-0.010628518648445606,-0.073918215930461884,0.063780978322029114,-0.114656604826450348,-0.002786858472973108,0.015262181870639324,0.076232232153415680,-0.037911761552095413,0.066267929971218109,-0.067235693335533142,-0.049403227865695953,-0.289765506982803345,-0.021495917811989784,-0.053438153117895126,-0.032279964536428452,0.004350494127720594,-0.098056025803089142,-0.017224403098225594,0.066048227250576019,-0.191807597875595093,-0.016803000122308731,0.012670699506998062,-0.012050309218466282,0.059847891330718994,0.083381146192550659,-0.016636813059449196,0.036792155355215073,-0.013809668831527233
0.028518708422780037,0.004741587676107883,-0.086188755929470062,-0.035013716667890549,-0.092460386455059052,0.039172422140836716,0.158699885010719299,0.150359988212585449,-0.027594177052378654,0.084476500749588013,0.010805753059685230,0.134657070040702820,-0.002669611247256398,-0.061849251389503479,-0.060448691248893738,-0.026044497266411781,0.154384747147560120,0.151672840118408203,0.051447041332721710,-0.083258524537086487,-0.148230299353599548,-0.107125513255596161,0.103225782513618469,-0.060593657195568085,-0.020256910473108292,-0.063348509371280670,-0.021164966747164726,0.191450074315071106,0.015649113804101944,0.082201503217220306,0.080624602735042572,-0.023315383121371269,0.015367074869573116,0.033093750476837158,-0.013540224172174931,0.021371915936470032,-0.113865278661251068,0.027710611000657082,0.220085546374320984,0.043447785079479218,0.025833534076809883,-0.018785672262310982,0.165065273642539978,0.049477420747280121,0.014960057102143764,-0.118398413062095642,-0.082775585353374481,0.105168350040912628,-0.038549154996871948,-0.023306267336010933,0.020670922473073006,0.102481663227081299,0.083755396306514740,-0.035882804542779922,0.008614633232355118,-0.127564176917076111,0.055054962635040283,-0.035607215017080307,-0.100947275757789612,0.044455021619796753,-0.027817122638225555,-0.104757510125637054,0.002679731929674745,0.024149436503648758,-0.004103714134544134,0.045500878244638443,-0.043611790984869003,-0.056527283042669296,0.035088434815406799,-0.001053363201208413,0.073460690677165985,-0.122522234916687012,-0.102223843336105347,-0.077165447175502777,0.002612057840451598,-0.187749877572059631,-0.037655439227819443,0.020096922293305397,-0.025741178542375565,0.055740218609571457,0.150480806827545166,0.008088458329439163,-0.070039875805377960,-0.195542991161346436,0.036620453000068665,0.081791765987873077,0.079569511115550995,0.083305828273296356,0.031468931585550308,0.024389674887061119,0.015341788530349731,0.048218384385108948,-0.021833801642060280,0.050969358533620834,0.120287716388702393,-0.068500526249408722,-0.085909791290760040,0.004768601618707180,0.015044079162180424,-0.056595850735902786
0.047987256199121475,0.000795094994828105,0.068121843039989471,-0.043389197438955307,-0.109460666775703430,-0.043647564947605133,0.065691597759723663,-0.062498576939105988,-0.100657500326633453,-0.124764092266559601,-0.108861640095710754,0.078177325427532196,-0.310605227947235107,-0.072173118591308594,-0.087739966809749603,-0.009513512253761292,0.102048926055431366,0.013441435061395168,-0.051703080534934998,0.042457025498151779,0.021458500996232033,-0.148841768503189087,-0.028025336563587189,0.066896893084049225,0.051134537905454636,0.038795065134763718,0.078812576830387115,0.031528666615486145,0.027623219415545464,-0.087871901690959930,0.073229752480983734,-0.160805389285087585,-0.018169958144426346,-0.108585052192211151,-0.008891975507140160,0.041220698505640030,-0.048083603382110596,-0.006974530871957541,0.057865999639034271,-0.006872933357954025,-0.110180564224720001,-0.087763220071792603,-0.049364253878593445,-0.061627622693777084,-0.043906334787607193,-0.057537529617547989,0.141736328601837158,-0.019438602030277252,0.028740590438246727,-0.021263133734464645,0.014745790511369705,-0.158052057027816772,0.014029890298843384,-0.006538039073348045,-0.110420480370521545,-0.047853656113147736,-0.045133512467145920,0.005884401034563780,0.059942543506622314,0.011198474094271660,-0.021505706012248993,0.043942939490079880,0.031120063737034798,-0.053970385342836380,-0.026396689936518669,-0.058916106820106506,-0.084850259125232697,0.044434450566768646,0.049341320991516113,-0.041293881833553314,0.121478661894798279,0.180754125118255615,0.080156140029430389,-0.079682931303977966,-0.106246046721935272,-0.208607852458953857,-0.019066154956817627,-0.081467844545841217,0.102582521736621857,-0.063398361206054688,0.149674430489540100,0.063746258616447449,0.130709901452064514,-0.044259876012802124,0.008511739782989025,0.033596552908420563,0.094243429601192474,0.080494731664657593,-0.259539365768432617,-0.191575720906257629,0.076189905405044556,0.006636200007051229,-0.019320171326398849,0.089745163917541504,-0.100738987326622009,-0.011973399668931961,0.084691978991031647,-0.033578194677829742,-0.031417470425367355,-0.144204154610633850
-0.011416943743824959,-0.070848703384399414,0.076743945479393005,0.020822612568736076,-0.143956452608108521,-0.020996980369091034,-0.028659218922257423,0.127798706293106079,0.040392179042100906,-0.105588451027870178,0.027159655466675758,-0.032256249338388443,-0.169488683342933655,0.170896500349044800,0.211545586585998535,-0.145352810621261597,0.209402352571487427,0.078920193016529083,-0.051932066679000854,0.110320083796977997,0.142240121960639954,-0.127386733889579773,0.038283508270978928,-0.016812866553664207,0.175646856427192688,-0.048526834696531296,0.053889270871877670,0.037365302443504333,-0.040647860616445541,-0.205834552645683289,0.064861156046390533,-0.161305591464042664,-0.033664312213659286,0.088843055069446564,-0.069906644523143768,-0.034260157495737076,-0.040005862712860107,-0.169641360640525818,0.289253145456314087,0.003918753471225500,-0.055020019412040710,-0.146406322717666626,0.138512626290321350,-0.014143762178719044,0.042385172098875046,-0.141716822981834412,-0.030458627268671989,-0.172159448266029358,0.059568572789430618,-0.115066669881343842,0.002704708604142070,-0.171988725662231445,0.005039825104176998,-0.035622131079435349,0.072436235845088959,-0.143635720014572144,0.035153739154338837,-0.003147633280605078,-0.064296893775463104,-0.001907698693685234,0.188659965991973877,-0.047312717884778976,-0.063016623258590698,-0.003798784920945764,-0.088219210505485535,-0.063613764941692352,0.004643638152629137,-0.035692833364009857,-0.133865073323249817,-0.046708535403013229,0.035820312798023224,-0.051092255860567093,-0.021020451560616493,0.116752974689006805,-0.085620060563087463,-0.156284853816032410,-0.113274633884429932,-0.009573503397405148,0.007155045401304960,0.020960433408617973,0.118451051414012909,0.125889673829078674,-0.001641070703044534,0.020079061388969421,0.056004986166954041,-0.063407249748706818,-0.018688458949327469,-0.117888048291206360,-0.024484228342771530,0.075328901410102844,-0.024939883500337601,-0.071507759392261505,0.011410092934966087,0.041200261563062668,-0.035012017935514450,0.183220759034156799,0.045601002871990204,0.029540373012423515,0.009301424026489258,-0.213142618536949158
0.079833425581455231,0.049199543893337250,0.011684638448059559,0.030628815293312073,-0.075746126472949982,-0.012248472310602665,-0.229327619075775146,-0.139490082859992981,0.047945868223905563,-0.195427164435386658,0.004637714009732008,0.061524238437414169,-0.018290098756551743,0.094892650842666626,-0.054303556680679321,0.094317816197872162,0.124840557575225830,-0.031687267124652863,-0.038713928312063217,0.081497378647327423,-0.066641643643379211,-0.021547062322497368,0.018565600737929344,0.072470456361770630,0.104951471090316772,-0.051025085151195526,0.022494731470942497,0.112137235701084137,0.031208036467432976,-0.080339208245277405,0.035065658390522003,0.156887814402580261,0.032200321555137634,-0.029683513566851616,0.076290041208267212,0.143004149198532104,-0.017363872379064560,0.047586042433977127,-0.052296850830316544,-0.023593364283442497,-0.144652083516120911,-0.083409234881401062,0.016424452885985374,-0.093185953795909882,-0.060624878853559494,-0.122543886303901672,-0.090979754924774170,-0.058737918734550476,0.004041265696287155,-0.156931698322296143,0.036426339298486710,-0.219542443752288818,-0.095196701586246490,0.152965188026428223,0.028881732374429703,0.150673791766166687,0.004373571835458279,0.007504219189286232,0.057282526046037674,-0.078855052590370178,-0.024357579648494720,0.092671409249305725,0.047127187252044678,-0.041245177388191223,-0.045494440943002701,0.051104526966810226,-0.167944550514221191,-0.043017212301492691,-0.123856358230113983,-0.089838042855262756,-0.100365735590457916,-0.061978310346603394,-0.052795629948377609,-0.161848857998847961,0.036383237689733505,-0.260252326726913452,0.087017647922039032,0.015104734338819981,-0.009803779423236847,-0.157608494162559509,0.058824423700571060,-0.018502380698919296,0.127420276403427124,-0.034346397966146469,-0.021728061139583588,-0.060503259301185608,0.048893734812736511,-0.028878182172775269,-0.143779769539833069,-0.143143832683563232,0.162874370813369751,-0.146853968501091003,-0.030883921310305595,-0.029885277152061462,-0.080784268677234650,0.072369553148746490,0.050871081650257111,-0.019942760467529297,0.026118377223610878,-0.033909723162651062
-0.004659260157495737,0.057332579046487808,0.092327140271663666,0.054512627422809601,-0.139833509922027588,-0.018451374024152756,-0.085816249251365662,0.191989645361900330,-0.073849320411682129,0.148159146308898926,-0.165931954979896545,0.111609064042568207,0.107899121940135956,-0.002174648456275463,0.103925123810768127,0.077608212828636169,0.062295358628034592,-0.027077715843915939,0.013770277611911297,-0.142266929149627686,-0.044180661439895630,-0.027067786082625389,-0.099357031285762787,0.113926231861114502,0.042383506894111633,-0.045670330524444580,0.085682898759841919,0.016876302659511566,-0.079442650079727173,-0.145070463418960571,-0.069467678666114807,-0.187537878751754761,-0.001913200598210096,-0.041825383901596069,-0.139947399497032166,-0.048927783966064453,-0.093779906630516052,0.046754106879234314,0.113640949130058289,0.027579404413700104,-0.069380588829517365,-0.103838399052619934,-0.041858155280351639,-0.030346944928169250,0.009152351878583431,0.086239561438560486,-0.055012855678796768,-0.030895657837390900,0.068986602127552032,0.059501871466636658,0.001492284238338470,-0.039565738290548325,-0.077441871166229248,0.044912401586771011,-0.045076277107000351,-0.220482707023620605,-0.002524803625419736,-0.042202793061733246,0.028442373499274254,0.191745325922966003,-0.023081734776496887,0.056772448122501373,-0.045367192476987839,-0.023059753701090813,0.060818370431661606,0.035340681672096252,-0.019064145162701607,0.004476720467209816,0.142540290951728821,-0.068298555910587311,0.149774670600891113,0.020746165886521339,0.089762255549430847,0.132587268948554993,-0.209731414914131165,0.079654805362224579,-0.089942306280136108,-0.158277526497840881,-0.017839705571532249,0.081814602017402649,0.077616274356842041,0.027884144335985184,0.006031767930835485,0.018637252971529961,-0.024499218910932541,0.017940783873200417,0.180192962288856506,-0.005013441201299429,0.125765040516853333,-0.031602300703525543,0.065202139317989349,0.118346475064754486,-0.018727689981460571,0.239065259695053101,-0.020783552899956703,-0.054083067923784256,0.077890105545520782,0.042404744774103165,0.042287223041057587,-0.009992361068725586
0.092002354562282562,0.021008756011724472,-0.014554258435964584,0.022949386388063431,-0.057897046208381653,-0.002820271300151944,0.017506171017885208,0.074729070067405701,0.012579116038978100,-0.110275126993656158,-0.085605882108211517,0.063979186117649078,0.063427358865737915,0.073419541120529175,-0.059355054050683975,0.018180049955844879,0.216871961951255798,0.073412589728832245,0.051587432622909546,0.070193141698837280,0.030146162956953049,-0.083818413317203522,-0.072048306465148926,0.054714750498533249,0.062079008668661118,-0.109325312077999115,-0.003457905491814017,-0.022947490215301514,-0.079179443418979645,-0.172940596938133240,-0.059193234890699387,-0.065160319209098816,-0.040962748229503632,-0.033575199544429779,-0.035389568656682968,0.011188094504177570,0.018848208710551262,-0.046325225383043289,0.167165338993072510,0.020658716559410095,0.026783430948853493,-0.143764629960060120,-0.079490892589092255,0.079178825020790100,-0.013508916832506657,-0.154102325439453125,-0.084811434149742126,0.070920206606388092,0.038580514490604401,-0.071685887873172760,-0.007537715602666140,-0.083707742393016815,-0.043424054980278015,0.085504777729511261,0.001136573730036616,-0.005231606774032116,0.036245077848434448,-0.028791468590497971,-0.077622331678867340,0.002106940606608987,0.006656741723418236,0.083440274000167847,-0.036280017346143723,0.036379724740982056,-0.005141225177794695,0.106593608856201172,-0.077724173665046692,-0.000376244192011654,-0.118568457663059235,-0.079397954046726227,0.038426708430051804,-0.024141095578670502,-0.133420690894126892,-0.013267934322357178,-0.067838788032531738,-0.161626353859901428,-0.099439069628715515,-0.006491995882242918,0.071118570864200592,0.043728448450565338,0.062317468225955963,-0.102342694997787476,-0.034674976021051407,0.014703437685966492,0.035152595490217209,-0.148567497730255127,0.034837193787097931,-0.001243746373802423,0.033838834613561630,-0.118502959609031677,0.080480203032493591,-0.068466216325759888,0.042066436260938644,0.006949079222977161,0.021786494180560112,0.001112322439439595,0.166437625885009766,0.017800047993659973,0.028884027153253555,-0.054308760911226273
-0.097411617636680603,-0.012083843350410461,0.069088287651538849,0.021708775311708450,-0.018798403441905975,-0.011479621753096581,0.127675890922546387,-0.033095773309469223,-0.099580168724060059,-0.205685496330261230,0.025645211338996887,-0.004956344608217478,0.027049951255321503,0.006134586408734322,0.072431445121765137,0.049126662313938141,0.031400032341480255,0.076575852930545807,-0.007915159687399864,-0.054873421788215637,0.084484823048114777,-0.047934692353010178,-0.131803289055824280,-0.047503780573606491,0.074743777513504028,-0.025959618389606476,0.099132806062698364,-0.094063416123390198,-0.099066369235515594,-0.215404868125915527,0.001706380629912019,-0.153161019086837769,-0.066496476531028748,0.017434593290090561,0.070163547992706299,-0.152837604284286499,-0.002471172949299216,-0.028751200065016747,0.041963439434766769,-0.061108842492103577,-0.035688005387783051,-0.049520503729581833,-0.171723216772079468,0.011915592476725578,0.009479846805334091,-0.034970711916685104,-0.041725542396306992,0.030912464484572411,0.022010715678334236,-0.268214344978332520,0.011723194271326065,-0.021388884633779526,0.042930886149406433,0.018127392977476120,-0.021983336657285690,-0.047632977366447449,-0.015525767579674721,0.009351503103971481,-0.064209900796413422,0.088013708591461182,0.150875642895698547,-0.117668054997920990,-0.030239950865507126,-0.021426798775792122,-0.073324076831340790,0.024843247607350349,-0.001557402429170907,0.002933278679847717,-0.081543870270252228,-0.054507587105035782,0.050117779523134232,0.046270027756690979,-0.025918534025549889,-0.011545944027602673,-0.000024623106583022,-0.045931145548820496,-0.037549458444118500,0.037778120487928391,0.026365345343947411,0.063595496118068695,-0.044795896857976913,-0.037827782332897186,-0.172024101018905640,0.058692105114459991,-0.002750286133959889,0.068183623254299164,-0.056069865822792053,-0.070236362516880035,0.041427470743656158,0.103937171399593353,-0.019363412633538246,0.037389282137155533,-0.053351096808910370,-0.060278613120317459,0.004211546853184700,-0.103494442999362946,-0.018361011520028114,-0.019661022350192070,-0.000631963484920561,0.018993418663740158
-0.002764845266938210,0.020708600059151649,0.083522744476795197,0.015933435410261154,0.054488297551870346,-0.098087154328823090,-0.036997552961111069,0.022259354591369629,-0.077588267624378204,-0.073799788951873779,-0.021925253793597221,-0.210281118750572205,-0.102527521550655365,0.026514584198594093,0.077693529427051544,0.102113127708435059,0.111018002033233643,-0.008923051878809929,-0.037909902632236481,-0.075521789491176605,0.012010873295366764,-0.072848148643970490,-0.049729190766811371,-0.099468789994716644,0.150802820920944214,-0.040797706693410873,0.023821270093321800,0.037200745195150375,-0.055524304509162903,0.079659149050712585,-0.109610214829444885,-0.126459673047065735,-0.006628235802054405,0.066834636032581329,0.140531450510025024,-0.097812876105308533,-0.003853396978229284,-0.011414697393774986,-0.038319107145071030,-0.019835459068417549,-0.010494065470993519,-0.129830375313758850,0.013503939844667912,-0.158722266554832458,-0.082479208707809448,-0.059902150183916092,-0.023470096290111542,-0.222230672836303711,0.043565303087234497,-0.132792025804519653,0.016704712063074112,-0.060197990387678146,-0.080604039132595062,0.028068933635950089,-0.017550358548760414,0.085599392652511597,-0.029047423973679543,0.006201977841556072,-0.072090350091457367,-0.000244291964918375,-0.038206942379474640,0.060217503458261490,-0.037959564477205276,-0.033523883670568466,0.076583765447139740,-0.011173018254339695,-0.089657403528690338,-0.005721892230212688,0.077136211097240448,-0.007124563213437796,0.047088332474231720,-0.155812367796897888,0.187870472669601440,-0.034992244094610214,0.079658590257167816,0.079244345426559448,-0.126146182417869568,0.032833896577358246,0.034954305738210678,-0.125392511487007141,0.060623716562986374,-0.017114279791712761,0.179988548159599304,0.101130686700344086,-0.050376638770103455,-0.138533934950828552,0.075229346752166748,0.022687641903758049,-0.144370988011360168,-0.015204845927655697,-0.089557543396949768,-0.005759621039032936,-0.046602591872215271,0.011301705613732338,0.017233571037650108,0.046374775469303131,0.096350438892841339,0.043728657066822052,0.001113965758122504,-0.053132019937038422
-0.070261456072330475,0.061850894242525101,0.027932949364185333,-0.040973164141178131,0.134712129831314087,0.017595926299691200,-0.024900203570723534,-0.116727232933044434,0.096377722918987274,-0.076998986303806305,0.114832274615764618,-0.277800023555755615,-0.110745236277580261,-0.012934433296322823,0.025140076875686646,0.019484061747789383,0.042418938130140305,0.115077018737792969,-0.030827101320028305,-0.130325004458427429,0.053220190107822418,0.002412310335785151,0.027843898162245750,-0.039376236498355865,-0.038133248686790466,-0.104285664856433868,0.048185165971517563,0.100964434444904327,-0.059316433966159821,-0.004150037188082933,-0.010057104751467705,0.038440760225057602,-0.054353319108486176,0.053561728447675705,0.077540166676044464,-0.079873465001583099,-0.050236005336046219,-0.020158007740974426,-0.153386682271957397,0.009731187485158443,-0.033356714993715286,0.003548534587025642,0.007924071513116360,-0.050259135663509369,-0.159600198268890381,0.047203093767166138,-0.123297661542892456,0.011359971947968006,-0.196728736162185669,-0.152062937617301941,0.032084781676530838,0.020999133586883545,0.035173099488019943,-0.040939044207334518,-0.099560566246509552,-0.027420843020081520,-0.006319211795926094,0.037248231470584869,-0.019029546529054642,0.040949214249849319,0.023600099608302116,-0.078205130994319916,-0.022188546136021614,-0.016732517629861832,0.091281168162822723,0.026399463415145874,-0.046625111252069473,-0.017693785950541496,-0.055082984268665314,-0.073897548019886017,-0.134149610996246338,-0.078553199768066406,0.017433654516935349,-0.034140437841415405,0.059416331350803375,-0.104080222547054291,0.082401357591152191,0.065810367465019226,0.098594300448894501,-0.125135734677314758,-0.019181819632649422,-0.035481199622154236,0.168066695332527161,-0.093584582209587097,-0.028703505173325539,-0.064545884728431702,0.014613697305321693,0.101880870759487152,-0.074198774993419647,-0.022137610241770744,-0.002442683093249798,0.011154328472912312,0.009473707526922226,-0.113292083144187927,0.062727771699428558,0.055676065385341644,-0.077956892549991608,-0.002906081266701221,0.026837518438696861,-0.048734758049249649
-0.077069453895092010,-0.024551207199692726,0.088059522211551666,0.035306211560964584,0.018225638195872307,-0.059226360172033310,0.155164748430252075,0.008487544022500515,-0.050141356885433197,-0.119739130139350891,0.015983091667294502,-0.036132346838712692,-0.159021973609924316,-0.090039975941181183,0.047486290335655212,0.056265283375978470,0.015220819041132927,-0.009060227312147617,0.000016513418813702,-0.022771565243601799,-0.072139441967010498,0.007579946424812078,0.071299530565738678,-0.074471682310104370,0.093608282506465912,-0.076891668140888214,0.024819349870085716,0.009295681491494179,0.117007575929164886,0.106911882758140564,-0.004552848171442747,-0.079916946589946747,0.022793995216488838,0.018097892403602600,0.107173047959804535,-0.005538553930819035,0.029287911951541901,0.028771586716175079,-0.013988819904625416,0.032795507460832596,0.031595014035701752,0.006760168820619583,0.006442365702241659,-0.109672635793685913,-0.030767967924475670,0.117550283670425415,-0.007416910026222467,-0.021138798445463181,-0.067366041243076324,-0.137059345841407776,-0.020818388089537621,-0.030379706993699074,0.101359888911247253,-0.015867237001657486,-0.119692787528038025,0.026780521497130394,0.032054360955953598,0.026773760095238686,-0.003776223398745060,0.008272428065538406,-0.023300988599658012,-0.013215187005698681,0.011101523414254189,-0.013162414543330669,0.056701947003602982,0.050931800156831741,-0.079544961452484131,-0.020739026367664337,-0.043988578021526337,-0.010166182182729244,-0.069104120135307312,0.090519733726978302,0.032875321805477142,0.047831203788518906,0.114829510450363159,-0.089200854301452637,-0.169572040438652039,0.003873907728120685,0.101499356329441071,-0.105649851262569427,-0.017448199912905693,-0.102902770042419434,0.061671741306781769,-0.127030938863754272,0.026740534231066704,0.031557083129882812,-0.067468568682670593,0.025053270161151886,-0.098530150949954987,-0.057337839156389236,-0.012128264643251896,0.009542019106447697,-0.023790514096617699,-0.126872494816780090,-0.122015818953514099,0.016938196495175362,0.061989497393369675,0.016897827386856079,0.042370878159999847,-0.076529912650585175
0.043797034770250320,-0.078677929937839508,-0.019758943468332291,0.023119837045669556,-0.045181825757026672,0.092453233897686005,0.001240085344761610,0.096314027905464172,-0.050022762268781662,-0.184592127799987793,0.045709919184446335,0.070599362254142761,-0.112802691757678986,0.001888205297291279,0.049700874835252762,0.046576105058193207,0.133124694228172302,-0.101494230329990387,0.010089966468513012,0.134350776672363281,0.121859975159168243,-0.015182064846158028,-0.039433065801858902,0.039025925099849701,0.077734701335430145,-0.193183809518814087,-0.090507321059703827,0.118180282413959503,-0.019279951229691505,0.083262369036674500,0.039672110229730606,-0.020008180290460587,-0.019128449261188507,-0.067341849207878113,-0.061057627201080322,0.041529715061187744,0.031841631978750229,-0.183952480554580688,0.168123006820678711,-0.015484973788261414,0.103862628340721130,0.021807115525007248,0.011602214537560940,0.102909311652183533,-0.088005222380161285,-0.113537646830081940,0.049149904400110245,0.028103731572628021,0.113745220005512238,0.033904440701007843,0.005561232566833496,-0.068530991673469543,-0.060629315674304962,-0.035628467798233032,0.141387268900871277,-0.252420812845230103,0.012406306341290474,0.025070477277040482,0.004117419943213463,0.019851444289088249,0.063324011862277985,0.072333596646785736,0.020454267039895058,-0.002456749556586146,0.069856643676757812,0.138394668698310852,0.126769542694091797,-0.016682574525475502,-0.105281844735145569,-0.025761805474758148,-0.059392396360635757,-0.037774864584207535,0.039790809154510498,0.079091005027294159,-0.008298711851239204,-0.066160365939140320,-0.073895595967769623,-0.028479993343353271,-0.016777168959379196,-0.055155556648969650,0.012557844631373882,0.003770812181755900,-0.006704458035528660,-0.024328993633389473,-0.033935308456420898,0.114190123975276947,0.072820030152797699,-0.045353442430496216,0.057049926370382309,0.008414592593908310,-0.036224026232957840,-0.066916912794113159,0.039518814533948898,0.161818727850914001,-0.171686515212059021,0.011343924328684807,-0.063972033560276031,-0.027247326448559761,0.009621161036193371,-0.165764302015304565
0.057610895484685898,-0.031644504517316818,0.063444480299949646,-0.027536137029528618,-0.236158758401870728,-0.049378614872694016,-0.021917175501585007,-0.002002864843234420,-0.029237970709800720,-0.243351384997367859,-0.175915375351905823,0.023768737912178040,0.009351895190775394,0.169376492500305176,0.147871807217597961,-0.042970031499862671,0.228528231382369995,0.206724122166633606,0.025215165689587593,0.068734131753444672,0.073535688221454620,-0.108811698853969574,-0.061330132186412811,0.024156669154763222,0.110106021165847778,0.017246674746274948,-0.097535997629165649,0.064180493354797363,0.094719760119915009,-0.251499056816101074,0.093007326126098633,-0.072971984744071960,-0.039257049560546875,-0.114546142518520355,-0.075584530830383301,-0.047339200973510742,-0.117996864020824432,-0.186158835887908936,0.330621033906936646,0.038793291896581650,-0.070413641631603241,-0.259038895368576050,-0.054598726332187653,0.074455082416534424,0.009315295144915581,-0.098458983004093170,0.052513632923364639,-0.078165270388126373,0.243439003825187683,-0.015553574077785015,-0.025217413902282715,-0.098439954221248627,-0.040558993816375732,-0.009404847398400307,0.069864690303802490,-0.131803110241889954,-0.031891107559204102,0.029480697587132454,-0.054650042206048965,0.103821247816085815,0.155050173401832581,-0.094035737216472626,0.021133605390787125,-0.003920877352356911,0.039575349539518356,0.020777370780706406,-0.000836840772535652,-0.051559012383222580,-0.170373782515525818,0.046948052942752838,-0.026177994906902313,-0.132245972752571106,-0.017905687913298607,0.124304994940757751,-0.234294369816780090,0.133879065513610840,-0.153721600770950317,-0.220842555165290833,-0.040443010628223419,0.058265294879674911,0.149738594889640808,0.080075189471244812,0.003546764608472586,0.081348679959774017,0.005233910400420427,-0.050991602241992950,0.135343983769416809,-0.008951990865170956,0.085635460913181305,0.018287723883986473,-0.026023164391517639,-0.001259360811673105,0.045781396329402924,0.264893561601638794,-0.219098582863807678,0.020151499658823013,-0.025738045573234558,-0.042727902531623840,-0.064592994749546051,-0.078222893178462982
-0.080385178327560425,-0.057826057076454163,-0.107556410133838654,-0.056022323668003082,0.015567917376756668,0.006281919311732054,0.049194809049367905,-0.117212630808353424,-0.075469449162483215,0.048398725688457489,0.092603199183940887,-0.189944982528686523,-0.032077483832836151,0.005779974628239870,-0.005656634923070669,0.003966100513935089,-0.060843251645565033,-0.023649809882044792,-0.050759177654981613,0.052506461739540100,0.062676161527633667,-0.009550707414746284,0.078287832438945770,-0.043285157531499863,0.003667508484795690,0.028931168839335442,-0.057148028165102005,0.028218513354659081,0.080684520304203033,-0.007830883376300335,0.062279030680656433,-0.052565447986125946,0.013736455701291561,0.045061692595481873,-0.034322507679462433,-0.013330284506082535,-0.028976147994399071,0.056958071887493134,-0.038220461457967758,0.006952292285859585,0.044475425034761429,-0.064089193940162659,-0.047097101807594299,-0.026706218719482422,-0.067520044744014740,0.005796059500426054,-0.082664780318737030,0.047360349446535110,-0.099159955978393555,0.006996312644332647,0.011943269520998001,0.115076787769794464,0.097416013479232788,0.059548456221818924,0.042256385087966919,-0.002595230937004089,-0.010533372871577740,-0.033618204295635223,-0.028881518170237541,-0.015223323367536068,-0.033526327461004257,-0.124845921993255615,-0.073337674140930176,-0.051874130964279175,-0.048635076731443405,0.090524561703205109,-0.037855166941881180,0.006814434658735991,-0.076960228383541107,-0.008654952980577946,-0.002840264001861215,-0.007323326542973518,-0.003342810785397887,-0.020295321941375732,0.075819127261638641,-0.013272580690681934,-0.046645440161228180,0.102973110973834991,0.004452893976122141,0.021495835855603218,-0.145315274596214294,-0.033112507313489914,-0.049797959625720978,0.000941917940508574,-0.079707622528076172,0.136579841375350952,-0.060235284268856049,-0.090401560068130493,0.028979439288377762,0.075845815241336823,0.028543831780552864,-0.142527118325233459,-0.031276684254407883,-0.157320007681846619,0.064308814704418182,-0.039612431079149246,-0.126644849777221680,-0.025700787082314491,-0.018697107210755348,0.007636896800249815
-0.009176537394523621,-0.050969611853361130,0.056217893958091736,-0.033983174711465836,0.052172977477312088,-0.027974862605333328,0.077877424657344818,-0.130626291036605835,0.054565735161304474,-0.062375184148550034,0.013971254229545593,-0.254248678684234619,-0.104351900517940521,0.056962139904499054,0.065660081803798676,0.068838112056255341,0.076066255569458008,0.030870176851749420,-0.040174197405576706,0.025883078575134277,0.047363966703414917,0.025097457692027092,-0.041869517415761948,0.006810345686972141,0.014356930740177631,-0.048632867634296417,0.060482408851385117,-0.072279125452041626,-0.063816644251346588,0.021404910832643509,0.089916922152042389,-0.041525419801473618,-0.000337048171786591,0.092672333121299744,0.090226374566555023,-0.027451945468783379,0.004059332422912121,-0.003936500288546085,-0.032945964485406876,-0.019845155999064445,0.012890200130641460,-0.044170662760734558,-0.107506051659584045,0.025653373450040817,-0.125230267643928528,-0.017088251188397408,-0.037679228931665421,-0.006537967827171087,0.008716100826859474,-0.163116469979286194,-0.028132224455475807,-0.002705499529838562,0.073919244110584259,0.074764065444469452,0.042664788663387299,0.084197580814361572,0.041079681366682053,0.031407598406076431,-0.030257539823651314,0.126723408699035645,-0.017008977010846138,-0.138714194297790527,-0.005560933612287045,0.045010879635810852,-0.021229360252618790,0.013389485888183117,0.015518691390752792,-0.038733590394258499,-0.033280454576015472,-0.079536072909832001,0.008750951848924160,-0.004437870811671019,-0.021217409521341324,-0.007930695079267025,0.086949937045574188,-0.110661104321479797,-0.022304415702819824,0.100152552127838135,0.068149276077747345,-0.012018412351608276,-0.173527300357818604,-0.076260909438133240,-0.005845612380653620,0.014827305451035500,-0.048869676887989044,0.047293834388256073,-0.058499518781900406,-0.068192750215530396,-0.044700048863887787,0.059258792549371719,-0.007010483648627996,-0.031497307121753693,0.032715629786252975,-0.157226100564002991,-0.006775848101824522,-0.004067686852067709,-0.051022760570049286,0.010462336242198944,-0.055512830615043640,-0.027002980932593346
-0.017396524548530579,0.012165315449237823,0.101435005664825439,0.021495848894119263,-0.087784998118877411,0.004745237063616514,-0.000544957700185478,-0.248962476849555969,0.144456699490547180,-0.113484404981136322,-0.157903000712394714,-0.131926357746124268,-0.130227476358413696,-0.070151180028915405,0.041210539638996124,0.182837173342704773,0.058301761746406555,0.184550002217292786,-0.105204865336418152,-0.028215324506163597,-0.171603918075561523,-0.063594974577426910,-0.034907806664705276,0.023801025003194809,0.029442844912409782,0.065919779241085052,0.060493919998407364,0.089634962379932404,0.178840264678001404,-0.172029703855514526,-0.123517841100692749,0.056312143802642822,0.009390485472977161,0.007969309575855732,-0.026726301759481430,0.092025883495807648,-0.158287495374679565,0.019964348524808884,0.093832038342952728,0.050532151013612747,-0.038167566061019897,-0.081523321568965912,-0.104918606579303741,-0.167757853865623474,0.054458711296319962,0.109898790717124939,-0.204103842377662659,0.046787708997726440,-0.068792775273323059,-0.052567549049854279,-0.049162957817316055,-0.241754800081253052,-0.026804022490978241,0.031659103929996490,0.042737502604722977,0.006936612538993359,0.013565400615334511,0.032445102930068970,-0.031888972967863083,0.204430222511291504,-0.121258728206157684,-0.011454006657004356,-0.038920026272535324,-0.019904829561710358,0.078672327101230621,0.084713838994503021,-0.076842561364173889,0.006784590426832438,0.057344224303960800,0.051066812127828598,-0.152278438210487366,0.139382943511009216,0.156258657574653625,-0.141691073775291443,-0.090339824557304382,-0.101135820150375366,0.087705820798873901,-0.023591153323650360,0.087889991700649261,-0.146029099822044373,0.243111938238143921,-0.166795998811721802,0.247876256704330444,-0.063970096409320831,-0.041023708879947662,0.013222526758909225,0.158809050917625427,0.072586908936500549,-0.179054394364356995,-0.243737280368804932,0.110323198139667511,0.149844422936439514,-0.014803382568061352,-0.109176144003868103,-0.131841748952865601,-0.004964073188602924,0.048153612762689590,0.034051705151796341,-0.036329507827758789,-0.011555556207895279
-0.032087743282318115,-0.004596381913870573,0.050626654177904129,-0.044082164764404297,0.045723665505647659,-0.034867763519287109,0.029293095692992210,-0.077763348817825317,0.006820459850132465,0.037457011640071869,0.046938702464103699,-0.020521685481071472,0.022410031408071518,-0.030985472723841667,0.156788721680641174,0.121952436864376068,-0.007510904222726822,-0.031219141557812691,0.035362862050533295,-0.087818711996078491,-0.016540797427296638,0.091011792421340942,-0.101625844836235046,0.047852013260126114,0.013876662589609623,-0.181013733148574829,0.150860413908958435,0.003719633910804987,-0.111902169883251190,-0.049460664391517639,0.036006622016429901,-0.021887987852096558,-0.017081951722502708,0.001537530682981014,0.056362248957157135,0.056349173188209534,-0.015371521003544331,0.072747051715850830,-0.128269061446189880,0.005890285596251488,0.138240501284599304,-0.007786412257701159,-0.002812862396240234,-0.109280280768871307,-0.033028755336999893,-0.018788477405905724,-0.085999205708503723,0.113361760973930359,-0.129788339138031006,0.070572614669799805,-0.044227607548236847,-0.009556559845805168,-0.031806763261556625,0.078512839972972870,-0.052254449576139450,0.078017413616180420,-0.002412972971796989,-0.019740700721740723,-0.015623702667653561,-0.016241546720266342,-0.134319081902503967,-0.054340966045856476,-0.038436319679021835,-0.029075570404529572,-0.028837371617555618,0.019337059929966927,0.046065725386142731,-0.018928185105323792,-0.009757424704730511,-0.006543460767716169,-0.083053097128868103,-0.005196896381676197,-0.152468651533126831,-0.163299560546875000,-0.003462560940533876,-0.058071173727512360,0.033112958073616028,0.082512043416500092,-0.043169092386960983,-0.030178103595972061,-0.123792573809623718,-0.181966349482536316,0.027256703004240990,0.011424064636230469,0.031567569822072983,0.013012045994400978,-0.057706374675035477,-0.017803693190217018,-0.180996194481849670,-0.042790040373802185,0.012835495173931122,-0.024730408564209938,-0.050852637737989426,-0.111549913883209229,0.053657066076993942,-0.025132469832897186,0.050222069025039673,-0.051264796406030655,0.024609398096799850,-0.024228980764746666
-0.007248892448842525,0.058293260633945465,-0.015598886646330357,-0.039615176618099213,-0.129862040281295776,-0.070582129061222076,-0.049310725182294846,0.092444278299808502,0.008613999933004379,-0.138116315007209778,-0.021748939529061317,-0.087755441665649414,-0.069286867976188660,-0.039673507213592529,0.000256143161095679,0.234195768833160400,0.070463970303535461,-0.003295604372397065,0.074011184275150299,-0.136448487639427185,-0.064104877412319183,-0.133265659213066101,0.017280021682381630,0.055639497935771942,-0.011186857707798481,-0.155067160725593567,0.122377365827560425,0.041434209793806076,-0.042570177465677261,0.031961377710103989,0.037471786141395569,-0.121683366596698761,0.034983415156602859,-0.109303534030914307,0.063529893755912781,0.081068567931652069,-0.087523341178894043,0.034597512334585190,0.036266062408685684,0.023344757035374641,0.024953804910182953,0.042381487786769867,0.126553952693939209,-0.170771807432174683,-0.090305201709270477,-0.096015624701976776,-0.049454543739557266,-0.055563900619745255,-0.079645685851573944,0.049293641000986099,-0.020483350381255150,-0.002933502895757556,-0.018955862149596214,-0.013268590904772282,-0.021456165239214897,0.105392709374427795,-0.055567201226949692,0.024847151711583138,-0.104368120431900024,0.061324384063482285,-0.192144736647605896,0.071873225271701813,0.060730360448360443,0.069494970142841339,0.073740325868129730,0.113527588546276093,-0.105788961052894592,0.037064634263515472,0.081974267959594727,-0.062021818011999130,-0.003475793870165944,-0.019107019528746605,-0.096242651343345642,-0.109651997685432434,-0.071819923818111420,-0.211045727133750916,0.212662726640701294,0.006353586912155151,-0.056153327226638794,-0.080976083874702454,0.168275803327560425,-0.169017508625984192,0.086872115731239319,-0.089238919317722321,-0.007070730905979872,0.094344310462474823,0.105550557374954224,0.118461117148399353,-0.194599628448486328,-0.152820542454719543,0.042119115591049194,0.002887438517063856,0.010878754779696465,0.012865613214671612,-0.003357477253302932,-0.043837726116180420,0.023548703640699387,-0.022026138380169868,0.008270594291388988,0.018564023077487946
-0.019045598804950714,-0.031602345407009125,0.110284157097339630,-0.025891860947012901,-0.194180622696876526,-0.010114850476384163,0.007950270548462868,-0.102699853479862213,0.004082829225808382,-0.142642512917518616,-0.133241608738899231,-0.233914107084274292,-0.239932671189308167,0.071777351200580597,0.011146117001771927,0.046575766056776047,0.035846713930368423,-0.066489465534687042,-0.082717791199684143,-0.007297927048057318,0.070732399821281433,0.042767181992530823,-0.103703059256076813,0.115860193967819214,0.143699944019317627,0.164982914924621582,-0.133134812116622925,-0.001743029919452965,-0.147503271698951721,0.028537156060338020,0.142224252223968506,-0.060173537582159042,0.013803790323436260,0.059416290372610092,-0.007164889015257359,-0.019120898097753525,0.014818180352449417,-0.102005556225776672,0.159412369132041931,-0.028671687468886375,0.023183178156614304,-0.089845702052116394,-0.135238349437713623,-0.082793712615966797,-0.131456986069679260,0.015317861922085285,0.003881611395627260,0.008437408134341240,0.037014842033386230,-0.135723680257797241,0.003470272989943624,-0.163034930825233459,-0.085862234234809875,0.051755115389823914,0.054630152881145477,-0.085903622210025787,-0.006098166573792696,-0.026527075096964836,0.105982132256031036,0.064137853682041168,0.128536835312843323,-0.149364188313484192,-0.073307491838932037,-0.048683378845453262,0.148344501852989197,0.149722456932067871,-0.035434674471616745,-0.025005489587783813,-0.072274371981620789,-0.054778087884187698,0.021337706595659256,0.013711037114262581,0.150049969553947449,-0.049419544637203217,-0.055607624351978302,0.074128083884716034,-0.129320457577705383,-0.053175255656242371,0.222315996885299683,-0.159634917974472046,0.037423931062221527,0.012769863009452820,0.184038653969764709,0.179907336831092834,0.026280730962753296,-0.101916164159774780,0.074758857488632202,0.010117923840880394,-0.212206721305847168,0.006970849819481373,0.064713731408119202,-0.063317544758319855,-0.008437878452241421,0.033042106777429581,-0.145391136407852173,0.120263181626796722,-0.118020631372928619,-0.004929222166538239,-0.020756602287292480,-0.115425117313861847
-0.020584791898727417,0.032353624701499939,-0.032701041549444199,-0.042682938277721405,-0.072564825415611267,0.069451279938220978,0.069495104253292084,0.039413966238498688,-0.049572072923183441,-0.038386683911085129,-0.151936784386634827,-0.113202832639217377,-0.161581382155418396,-0.032964564859867096,0.189843460917472839,0.072395153343677521,0.093894414603710175,-0.086342789232730865,-0.079781636595726013,-0.024597182869911194,-0.030329979956150055,-0.125068232417106628,-0.026568656787276268,0.036308132112026215,0.118361830711364746,-0.047557868063449860,-0.132896095514297485,-0.051301397383213043,-0.017966073006391525,0.013762428425252438,0.046693690121173859,-0.087964013218879700,-0.032232526689767838,0.093558140099048615,0.002190083498135209,-0.034272991120815277,0.018955435603857040,-0.255048125982284546,0.082074888050556183,-0.015389405190944672,0.103530600666999817,-0.093800395727157593,0.067551888525485992,-0.042197521775960922,-0.111364126205444336,0.071064792573451996,0.073392771184444427,0.049283120781183243,-0.002624755259603262,0.019966270774602890,-0.033395357429981232,-0.058422930538654327,-0.053356017917394638,0.003332737833261490,-0.016980899497866631,-0.015254650264978409,-0.014810423366725445,0.026420008391141891,-0.004026000387966633,0.110452309250831604,-0.029830735176801682,-0.156029105186462402,-0.081811152398586273,0.031549312174320221,0.008420772850513458,0.093991406261920929,-0.203531041741371155,-0.027469245716929436,-0.130435332655906677,-0.060576539486646652,0.098612956702709198,-0.006844472140073776,-0.028033144772052765,0.048327676951885223,0.118819072842597961,0.150093078613281250,-0.134539946913719177,0.031579781323671341,0.019555209204554558,-0.159163340926170349,0.026831001043319702,0.114896535873413086,-0.082976609468460083,0.089502066373825073,0.019626118242740631,-0.048645872622728348,0.055582411587238312,-0.077561020851135254,-0.061639882624149323,-0.057255320250988007,-0.019284171983599663,0.003500395221635699,0.031611632555723190,0.076410889625549316,-0.033108454197645187,0.114582300186157227,-0.030915308743715286,0.029350386932492256,0.024871462956070900,-0.094303958117961884
0.237335786223411560,-0.055417891591787338,-0.032754722982645035,0.044606808573007584,-0.080808214843273163,0.035305447876453400,-0.251129567623138428,0.130142256617546082,0.097966223955154419,-0.152133509516716003,-0.076713934540748596,-0.053490415215492249,0.101156078279018402,-0.013855149038136005,0.005544079933315516,-0.046576190739870071,0.244737789034843445,-0.083949752151966095,0.058874893933534622,0.077781096100807190,-0.027165137231349945,-0.155603423714637756,-0.147913560271263123,0.124097965657711029,0.096057921648025513,-0.070999294519424438,-0.066780894994735718,0.087112158536911011,-0.046928461641073227,-0.006617154460400343,-0.189525485038757324,0.078474663197994232,-0.015710860490798950,-0.219365283846855164,-0.109263762831687927,-0.085733033716678619,-0.066479362547397614,-0.076736181974411011,0.085772313177585602,-0.000565231894142926,-0.030532082542777061,-0.088570483028888702,-0.051701255142688751,-0.011299869045615196,-0.061099298298358917,-0.304645508527755737,0.086239799857139587,0.032601110637187958,-0.001139073050580919,0.112338125705718994,-0.033097401261329651,-0.084781669080257416,-0.246879220008850098,0.136722683906555176,0.025632735341787338,-0.113482013344764709,-0.038787208497524261,0.022555375471711159,0.059825714677572250,0.070528738200664520,0.127324819564819336,0.207222029566764832,-0.032699238508939743,0.007858204655349255,0.117456838488578796,0.095525085926055908,0.066927723586559296,0.014971259981393814,-0.044340595602989197,-0.006754859816282988,-0.070872001349925995,-0.127099663019180298,-0.045869644731283188,0.133435502648353577,0.071576975286006927,-0.076158605515956879,0.043931722640991211,-0.049602471292018890,-0.087435334920883179,-0.150169745087623596,0.141283601522445679,-0.091865755617618561,0.040047600865364075,0.035142581909894943,-0.031212532892823219,-0.107123516499996185,0.034596767276525497,0.066984564065933228,0.142336905002593994,-0.031040053814649582,0.137000098824501038,-0.268019407987594604,-0.037234231829643250,0.190583169460296631,0.006172136869281530,-0.107670217752456665,0.092011727392673492,0.005250547546893358,0.016710992902517319,-0.020125357434153557
0.179040163755416870,-0.082259736955165863,-0.086094975471496582,0.022762397304177284,-0.292372941970825195,-0.101937353610992432,-0.087195493280887604,0.169754713773727417,0.006558866705745459,-0.135314613580703735,-0.159848138689994812,-0.107712745666503906,-0.092760324478149414,-0.110458388924598694,-0.162671193480491638,0.040753945708274841,0.298283874988555908,0.073778405785560608,-0.015351361595094204,-0.004648392088711262,-0.055878285318613052,-0.174399361014366150,0.061789974570274353,0.086268514394760132,0.107454195618629456,-0.128203228116035461,-0.093225777149200439,0.023899171501398087,0.079339817166328430,-0.000809860124718398,0.139025792479515076,0.072752974927425385,-0.040726944804191589,-0.093608804047107697,-0.103157527744770050,0.042790666222572327,-0.123100295662879944,-0.124063447117805481,0.322022020816802979,-0.004844453651458025,-0.000974496419075876,-0.251337140798568726,0.116593256592750549,0.103256709873676300,0.071874126791954041,-0.068313375115394592,0.012712306343019009,-0.036524407565593719,0.152447968721389771,0.162578940391540527,-0.000558665662538260,-0.017135199159383774,-0.004367218818515539,-0.018724309280514717,0.018942603841423988,-0.235007584095001221,0.051391817629337311,-0.022859135642647743,-0.031447310000658035,-0.123626515269279480,0.053504306823015213,-0.074645191431045532,0.019706653431057930,0.049459487199783325,0.169253170490264893,-0.014185133390128613,-0.180551260709762573,0.004322549793869257,0.056122291833162308,0.070114783942699432,-0.003316282294690609,-0.100773289799690247,-0.133238032460212708,-0.124227479100227356,-0.152606233954429626,-0.117409534752368927,-0.099637314677238464,-0.297816991806030273,-0.046613991260528564,0.108375936746597290,0.181134954094886780,0.056644435971975327,-0.000753901025746018,0.059605810791254044,-0.025554770603775978,-0.158124268054962158,0.115266807377338409,0.009231246076524258,-0.095827989280223846,-0.046231813728809357,-0.004951930604875088,-0.127493813633918762,0.025102319195866585,0.195241481065750122,0.103055328130722046,0.015287009999155998,0.025683781132102013,0.019809540361166000,-0.004185051191598177,-0.078709304332733154
0.017305238172411919,-0.055776253342628479,-0.106181479990482330,-0.021925980225205421,-0.101267188787460327,0.031983185559511185,-0.060991868376731873,0.040025189518928528,-0.065282367169857025,-0.142301797866821289,-0.054849699139595032,-0.175953343510627747,-0.084087975323200226,0.057361535727977753,-0.084857903420925140,-0.000332580879330635,-0.030875418335199356,-0.038768239319324493,-0.040571268647909164,-0.034256424754858017,0.058215219527482986,-0.036254268139600754,-0.054061304777860641,0.087532080709934235,0.037896491587162018,-0.180063411593437195,-0.102196268737316132,-0.011998191475868225,0.092839904129505157,0.126595407724380493,0.105028927326202393,-0.033062279224395752,0.032782871276140213,0.027714679017663002,-0.110419049859046936,0.003712324891239405,0.014377327635884285,-0.069651864469051361,0.095284618437290192,0.033417142927646637,0.058955311775207520,-0.088069513440132141,-0.029194934293627739,-0.035314507782459259,-0.036229722201824188,-0.032337132841348648,0.114461064338684082,0.069761276245117188,0.022868853062391281,-0.018015075474977493,0.005464471876621246,-0.064109861850738525,-0.078850843012332916,0.088203266263008118,0.025747835636138916,-0.054446913301944733,-0.007190837524831295,0.031586915254592896,-0.011284827254712582,-0.037889253348112106,0.012313110753893852,0.126168474555015564,-0.049051925539970398,-0.006347066257148981,0.048683781176805496,0.051237341016530991,0.027233865112066269,-0.055738337337970734,0.051663249731063843,-0.077001363039016724,-0.023749178275465965,0.008120913989841938,-0.016590654850006104,0.010167001746594906,0.024754999205470085,-0.045357253402471542,-0.153727114200592041,-0.090285934507846832,-0.131938457489013672,0.054085467010736465,-0.012060417793691158,-0.091913752257823944,0.028753252699971199,0.004677393008023500,-0.006750868167728186,-0.001464161672629416,0.066243059933185577,-0.054213304072618484,-0.031012509018182755,0.031007494777441025,0.050246477127075195,-0.323105692863464355,0.004074949771165848,0.121600039303302765,-0.015435873530805111,0.065542668104171753,0.018370447680354118,-0.020610297098755836,-0.055421248078346252,-0.014078573323786259
0.035773627460002899,-0.024110374972224236,-0.021609010174870491,0.015842014923691750,-0.013300863094627857,-0.061509832739830017,0.104628764092922211,0.019948258996009827,-0.113115333020687103,-0.027478823438286781,0.000550594471860677,-0.098408371210098267,-0.076792903244495392,0.037622757256031036,0.023528832942247391,0.037597846239805222,0.063691303133964539,0.002955246716737747,0.024345502257347107,-0.046987280249595642,0.112847641110420227,-0.036174841225147247,-0.003901450661942363,0.027738686650991440,0.075191587209701538,-0.010084443725645542,-0.081769652664661407,-0.115825146436691284,0.061557129025459290,-0.079354286193847656,-0.072325870394706726,-0.091309919953346252,-0.012948693707585335,0.065527498722076416,-0.001083520008251071,-0.081763491034507751,0.018237415701150894,0.018542448058724403,-0.042866043746471405,-0.061613116413354874,0.024286286905407906,-0.145025163888931274,-0.020549597218632698,0.085677951574325562,-0.108292020857334137,0.001124252215959132,-0.030493760481476784,-0.058097168803215027,0.058980029076337814,-0.153740972280502319,-0.023208772763609886,0.110048018395900726,0.048971880227327347,-0.020729037001729012,0.113792099058628082,-0.057136043906211853,-0.057523697614669800,0.023526385426521301,-0.029984675347805023,0.094933673739433289,0.093291774392127991,-0.112032562494277954,-0.068908125162124634,0.046398747712373734,-0.058433752506971359,-0.044300395995378494,-0.068006262183189392,0.035813860595226288,0.032406542450189590,-0.017276063561439514,0.021314347162842751,0.076338313519954681,0.047298677265644073,-0.025297557935118675,-0.002168912207707763,0.070455998182296753,-0.084404058754444122,-0.057065304368734360,0.084667474031448364,0.031364262104034424,-0.062029320746660233,-0.000937045377213508,-0.081084005534648895,0.098514735698699951,-0.027905724942684174,-0.085019119083881378,-0.010617059655487537,-0.027737578377127647,-0.025904370471835136,0.015057003125548363,0.019554706290364265,-0.046799201518297195,-0.038289941847324371,0.008043445646762848,-0.040669661015272141,0.017422268167138100,0.048617504537105560,0.040031958371400833,-0.068967148661613464,0.013871835544705391
-0.013554004020988941,-0.091670036315917969,0.027365665882825851,-0.020004520192742348,-0.068907417356967926,0.036131247878074646,-0.110794126987457275,0.045992799103260040,-0.010911708697676659,-0.133561402559280396,-0.057469133287668228,0.145153045654296875,-0.198770418763160706,0.099257558584213257,0.085893325507640839,0.139977872371673584,0.069838874042034149,-0.010283661074936390,-0.010415955446660519,-0.064702644944190979,-0.014562924392521381,0.048939447849988937,-0.062348298728466034,-0.108539335429668427,0.152505204081535339,-0.020975099876523018,-0.062366694211959839,-0.037177335470914841,-0.053505528718233109,-0.101764157414436340,-0.021350519731640816,-0.102861441671848297,0.006817230489104986,0.011326083913445473,-0.161521732807159424,-0.051638696342706680,-0.027348615229129791,-0.141856595873832703,0.132664725184440613,-0.019735388457775116,0.083275042474269867,-0.098200365900993347,-0.030313853174448013,-0.049946326762437820,0.010504891164600849,0.022031543776392937,-0.052142553031444550,-0.087273463606834412,0.146653071045875549,0.031204305589199066,0.019077798351645470,-0.053350441157817841,-0.049759779125452042,-0.021788736805319786,0.059881303459405899,-0.095182411372661591,-0.001398809836246073,-0.002777262823656201,-0.014249352738261223,0.028853535652160645,0.001384267816320062,0.091012261807918549,-0.051243606954813004,-0.020636472851037979,0.009286210872232914,-0.026712710037827492,-0.145033761858940125,-0.046694565564393997,-0.012580996379256248,-0.093164525926113129,0.059638887643814087,0.070047058165073395,0.141926661133766174,0.044051665812730789,-0.119779050350189209,0.101161703467369080,0.001638572080992162,-0.039434313774108887,-0.043975826352834702,-0.209850296378135681,0.036103725433349609,-0.123246140778064728,0.013253582641482353,0.188861861824989319,-0.018377279862761497,0.006685822736471891,0.089433617889881134,0.058387253433465958,0.042294010519981384,0.030180705711245537,-0.066214725375175476,-0.283090442419052124,0.035151150077581406,0.130675345659255981,-0.089878231287002563,0.029868904501199722,-0.136699050664901733,-0.052488293498754501,-0.036587785929441452,-0.054069600999355316
-0.055421359837055206,-0.040759734809398651,-0.069257907569408417,-0.015066415071487427,0.045415598899126053,-0.094979166984558105,0.049802724272012711,0.019323395565152168,0.016252402216196060,0.075782135128974915,-0.020073831081390381,-0.065523833036422729,-0.059344749897718430,-0.002034653443843126,-0.044282946735620499,0.064996518194675446,0.086607687175273895,-0.084316685795783997,0.008347049355506897,0.029257705435156822,0.054028779268264771,-0.007228062022477388,-0.132247820496559143,0.026649935171008110,0.041814304888248444,-0.055679172277450562,-0.051577899605035782,0.011578174307942390,0.082541465759277344,0.070901893079280853,-0.084007002413272858,-0.081274874508380890,0.021181317046284676,0.035522658377885818,-0.026990301907062531,0.018408000469207764,0.028667438775300980,0.079012453556060791,-0.166644513607025146,-0.073602385818958282,0.201279044151306152,-0.087178640067577362,-0.090202532708644867,0.036360498517751694,0.003979853820055723,-0.009306218475103378,0.095332957804203033,0.073910571634769440,-0.060364671051502228,-0.154893219470977783,0.007483711931854486,0.164444059133529663,-0.064817473292350769,-0.060915283858776093,-0.065455660223960876,0.024909159168601036,0.008751356974244118,-0.000047928780986695,-0.067328259348869324,-0.056714095175266266,-0.049502186477184296,-0.014509604312479496,-0.034678675234317780,-0.005314010661095381,-0.077714428305625916,-0.013727628625929356,-0.088183760643005371,-0.038262996822595596,0.128748342394828796,-0.042046576738357544,-0.023379797115921974,0.013851715251803398,0.056614205241203308,0.007928274571895599,0.045013044029474258,-0.088866062462329865,-0.068139761686325073,0.004532813560217619,-0.044715624302625656,-0.021996341645717621,-0.050688110291957855,0.005190014839172363,-0.005904726684093475,0.050045855343341827,0.014514755457639694,0.030873708426952362,-0.094134859740734100,0.013780221343040466,-0.014631047844886780,0.023241804912686348,-0.008837030269205570,-0.073366709053516388,-0.001389511511661112,-0.039524331688880920,0.079143971204757690,0.056271586567163467,-0.045124560594558716,-0.053792875260114670,0.012300823815166950,-0.100458689033985138
-0.032592862844467163,0.017182797193527222,0.006067146547138691,0.022722443565726280,0.038520954549312592,-0.099469259381294250,-0.003844678634777665,-0.081068828701972961,0.010996544733643532,0.063094116747379303,-0.003580722492188215,-0.109422676265239716,-0.130177810788154602,-0.063849873840808868,0.015847988426685333,0.091510504484176636,0.048747312277555466,0.052571348845958710,0.002911641495302320,-0.111968815326690674,-0.021068079397082329,0.031136818230152130,-0.032474022358655930,0.017599491402506828,0.040215235203504562,-0.050856620073318481,0.013439669273793697,-0.000265991955529898,-0.119288034737110138,0.025305718183517456,0.017203740775585175,0.036971032619476318,-0.008411521092057228,0.012797208502888680,0.047690175473690033,0.018114723265171051,-0.011484727263450623,0.101765938103199005,-0.200358614325523376,0.031455475836992264,0.051670219749212265,-0.025990229099988937,-0.043073847889900208,-0.097983337938785553,0.006511646322906017,0.002318963408470154,-0.087758928537368774,0.074533112347126007,-0.209567993879318237,-0.134276956319808960,-0.061524875462055206,-0.013932869769632816,-0.033571120351552963,0.047853831201791763,-0.026140503585338593,0.121518984436988831,0.030805639922618866,-0.017162526026368141,0.069187730550765991,-0.017279231920838356,-0.057823278009891510,0.014983966015279293,0.003228471148759127,0.016804521903395653,-0.032424986362457275,0.011121625080704689,0.046492163091897964,0.020901143550872803,0.040975939482450485,-0.040373258292675018,-0.071719937026500702,-0.007856150157749653,0.017396038398146629,-0.115429364144802094,0.010460289195179939,-0.044858288019895554,0.033865120261907578,0.094401635229587555,0.085954055190086365,-0.073817335069179535,-0.115390211343765259,0.016777794808149338,0.003359201829880476,0.031226124614477158,0.007636792957782745,0.002380398567765951,-0.024533754214644432,-0.017754221335053444,-0.156943976879119873,-0.065665520727634430,0.068900413811206818,-0.107946440577507019,0.038625895977020264,-0.145676881074905396,0.074427016079425812,-0.034812241792678833,-0.022146932780742645,0.039366725832223892,0.020797438919544220,0.002493438078090549
0.025852672755718231,-0.031424146145582199,0.022823199629783630,0.013594752177596092,0.014547717757523060,-0.048574298620223999,-0.115874476730823517,0.140789672732353210,0.073191821575164795,-0.062481999397277832,0.136688590049743652,-0.026887150481343269,-0.483065307140350342,-0.184050381183624268,0.035530526190996170,-0.038704730570316315,0.267643958330154419,-0.087650462985038757,0.033431816846132278,-0.188799753785133362,-0.134176194667816162,-0.117627747356891632,-0.023708131164312363,0.053210999816656113,0.122573286294937134,-0.218167603015899658,0.077535629272460938,-0.096668832004070282,-0.038051813840866089,-0.084837421774864197,-0.237413763999938965,0.004617588128894567,-0.010155614465475082,-0.118324704468250275,0.055062361061573029,-0.057546377182006836,-0.144059732556343079,-0.111138567328453064,-0.016681097447872162,-0.049319036304950714,-0.116689905524253845,-0.008318333886563778,0.095930024981498718,0.070782199501991272,-0.122724674642086029,0.079569660127162933,-0.121435731649398804,-0.026051741093397141,-0.227772161364555359,0.041447032243013382,-0.067629642784595490,-0.102557465434074402,-0.014515260234475136,0.132128030061721802,0.003030615160241723,-0.055167291313409805,-0.001006340491585433,0.040017351508140564,-0.025889379903674126,-0.136359855532646179,-0.012987022288143635,0.196034431457519531,-0.072566464543342590,-0.012949376367032528,-0.010977026075124741,-0.020201237872242928,-0.051109127700328827,-0.043465539813041687,0.067290976643562317,0.035588886588811874,-0.016953771933913231,-0.090187244117259979,-0.073195680975914001,0.016559928655624390,0.021033914759755135,0.077099196612834930,-0.044798199087381363,0.167808547616004944,-0.169645860791206360,-0.032621938735246658,0.213133782148361206,-0.116810500621795654,-0.034415036439895630,-0.226364448666572571,-0.000203948773560114,0.005051014479249716,0.049054548144340515,-0.074188143014907837,0.003024843288585544,-0.051288194954395294,-0.120383046567440033,-0.042948875576257706,-0.021539397537708282,-0.015434783883392811,-0.046780236065387726,-0.085336290299892426,-0.091754086315631866,-0.012244345620274544,-0.039312124252319336,-0.059047352522611618
-0.107770234346389771,-0.037641540169715881,-0.030838914215564728,-0.051524583250284195,0.027997285127639771,-0.011048390530049801,0.106344245374202728,-0.044341001659631729,0.124286137521266937,-0.191901236772537231,-0.059882145375013351,-0.295947313308715820,-0.037865690886974335,0.067941300570964813,-0.034092146903276443,-0.071898005902767181,0.103688314557075500,-0.034761637449264526,-0.065213955938816071,-0.052962731570005417,0.048425804823637009,-0.075875580310821533,0.010853872634470463,-0.041058707982301712,-0.035111725330352783,0.042185857892036438,-0.128251284360885620,-0.194624289870262146,0.161151051521301270,0.070353977382183075,-0.015713369473814964,-0.220737382769584656,-0.055231142789125443,-0.046312339603900909,-0.115517020225524902,-0.068878315389156342,0.046145591884851456,-0.215714290738105774,0.113257043063640594,-0.021936122328042984,0.026261588558554649,-0.027151253074407578,0.027617003768682480,0.035015087574720383,-0.053318832069635391,0.003315228270366788,0.058537520468235016,0.002044394146651030,0.116626895964145660,-0.090933211147785187,0.010014999657869339,0.038419663906097412,-0.105739429593086243,0.013988826423883438,0.258426129817962646,-0.076588593423366547,-0.031570162624120712,-0.042479943484067917,-0.030789792537689209,0.135420903563499451,0.013912027701735497,-0.111147128045558929,-0.075939074158668518,-0.027083886787295341,0.222510814666748047,0.134025558829307556,-0.134922832250595093,0.022101841866970062,-0.004648323170840740,0.032306578010320663,0.128875568509101868,-0.009320366196334362,0.039125740528106689,-0.156374484300613403,0.049801748245954514,-0.001251308363862336,-0.223689898848533630,0.009114723652601242,0.047478932887315750,0.114403858780860901,-0.007487536408007145,-0.042729988694190979,-0.076540328562259674,0.180651977658271790,-0.052886527031660080,0.027401354163885117,0.240398451685905457,0.026424873620271683,-0.168766692280769348,-0.005519268568605185,0.067435063421726227,-0.097639165818691254,-0.022096386179327965,0.151668548583984375,-0.171929508447647095,0.112313538789749146,-0.097805038094520569,-0.020042017102241516,0.012846268713474274,-0.026378450915217400
-0.051212623715400696,-0.053159330040216446,-0.185681328177452087,0.017544811591506004,0.038602467626333237,-0.063217654824256897,-0.109745293855667114,-0.070938110351562500,0.010087162256240845,0.061274919658899307,-0.022298259660601616,-0.045800767838954926,-0.226986795663833618,-0.081155747175216675,-0.031219182536005974,0.078181825578212738,-0.041050903499126434,-0.020497156307101250,0.015459345653653145,0.077619947493076324,0.000126970960991457,0.050696060061454773,0.169963270425796509,-0.109037630259990692,-0.173335179686546326,0.005582428071647882,-0.009078556671738625,-0.032817292958498001,-0.006048360373824835,-0.098451666533946991,0.114271484315395355,-0.014721125364303589,-0.042796544730663300,0.003568691667169333,-0.018304193392395973,-0.077799044549465179,-0.079360477626323700,0.015606572851538658,0.016497118398547173,0.045328941196203232,-0.115483440458774567,0.056354679167270660,-0.016133926808834076,-0.046587985008955002,-0.064216643571853638,0.017005484551191330,-0.173520475625991821,-0.015410281717777252,-0.071343146264553070,0.165782004594802856,-0.039167359471321106,0.057215932756662369,0.031659610569477081,0.055833227932453156,0.005485933739691973,-0.135704889893531799,-0.015086582861840725,-0.014889586716890335,-0.091380283236503601,-0.066907055675983429,0.005970746278762817,-0.079354293644428253,-0.044700138270854950,-0.031779892742633820,0.071803510189056396,-0.056227967143058777,0.005164156667888165,0.027009049430489540,0.047448288649320602,-0.117570169270038605,-0.012712105177342892,0.004832718521356583,0.079524502158164978,0.045677930116653442,-0.076622694730758667,-0.020978676155209541,0.121172487735748291,-0.011930920183658600,-0.010598420165479183,-0.054497826844453812,0.157794162631034851,0.061051487922668457,0.100538462400436401,-0.079794578254222870,0.002405396662652493,0.121492408215999603,-0.041061505675315857,0.007726774550974369,0.141640529036521912,0.032192043960094452,0.045091725885868073,-0.075641326606273651,0.032698106020689011,-0.068981923162937164,0.054768674075603485,-0.122031912207603455,0.033932801336050034,-0.013753080740571022,-0.004410651512444019,-0.021234545856714249
-0.089762702584266663,-0.011866282671689987,0.007896383292973042,-0.029351884499192238,0.104097425937652588,0.000916210992727429,0.062728799879550934,-0.149304330348968506,0.017730798572301865,0.100033558905124664,0.067261315882205963,-0.097330532968044281,-0.110150404274463654,0.092807710170745850,0.052665937691926956,0.019577058032155037,-0.044621549546718597,-0.006991712376475334,0.005312066990882158,0.011851198039948940,0.077119730412960052,-0.025996496900916100,-0.065956130623817444,-0.088072597980499268,0.071240916848182678,0.017312036827206612,0.084513723850250244,-0.025945225730538368,-0.088785648345947266,0.017482556402683258,-0.013677942566573620,0.025797823444008827,-0.044679168611764908,0.099450416862964630,0.044194392859935760,0.035524554550647736,0.066125959157943726,0.072640255093574524,-0.183494776487350464,-0.087411262094974518,0.013718190602958202,-0.079622052609920502,-0.081759959459304810,-0.041061457246541977,-0.061773937195539474,0.053101927042007446,-0.077910527586936951,0.032867349684238434,-0.075625881552696228,-0.008147615939378738,-0.009681117720901966,-0.048780683428049088,0.020827226340770721,0.055220518261194229,-0.153186261653900146,-0.042461264878511429,0.024586064741015434,-0.013435591012239456,-0.032900072634220123,-0.015382927842438221,0.014085679315030575,-0.065276116132736206,-0.018394276499748230,-0.061725314706563950,-0.065342999994754791,0.026939986273646355,-0.023231832310557365,-0.038457095623016357,0.033977854996919632,-0.015963062644004822,-0.030793162062764168,0.052196968346834183,-0.012489170767366886,0.049649797379970551,0.109609395265579224,-0.003785014385357499,-0.076261185109615326,0.055774640291929245,0.060603603720664978,-0.024775762110948563,-0.138113588094711304,-0.105172723531723022,0.057476539164781570,0.010342923924326897,-0.035700261592864990,0.065653629601001740,-0.107039898633956909,-0.080001600086688995,0.044819876551628113,0.016906242817640305,0.040546156466007233,-0.047584410756826401,0.005693123210221529,-0.251416265964508057,0.031398903578519821,0.056965366005897522,0.018003173172473907,-0.028192743659019470,-0.088967040181159973,-0.034491706639528275
-0.021370824426412582,-0.041573144495487213,0.083660751581192017,-0.018806578591465950,-0.119285166263580322,-0.053971473127603531,0.116198085248470306,0.009945984929800034,0.104185990989208221,-0.134221225976943970,-0.033437356352806091,-0.154547870159149170,0.008610459975898266,-0.109941340982913971,0.056952625513076782,-0.021387036889791489,0.079702049493789673,0.075394950807094574,-0.041309244930744171,0.094576902687549591,-0.065916985273361206,-0.186699882149696350,0.020889008417725563,-0.030819691717624664,0.139993295073509216,0.083231501281261444,0.005510396324098110,0.010289270430803299,-0.137555286288261414,-0.046004500240087509,-0.056072767823934555,-0.029428394511342049,0.051381535828113556,0.100849851965904236,0.080438427627086639,0.139378145337104797,-0.072157233953475952,-0.180757686495780945,0.089983910322189331,-0.005402301903814077,0.069726735353469849,-0.115959174931049347,-0.045736227184534073,0.052620805799961090,0.091492168605327606,-0.213292062282562256,0.141756758093833923,-0.007015791255980730,-0.064213253557682037,-0.126233249902725220,0.005833895877003670,0.027488788589835167,-0.130926832556724548,0.186386570334434509,0.108395829796791077,0.019362505525350571,0.001574550056830049,-0.008248828351497650,0.028365928679704666,-0.012749845162034035,0.120943889021873474,0.098691448569297791,0.007003064732998610,0.028770856559276581,0.004853206686675549,0.134816080331802368,-0.033292647451162338,-0.003941928502172232,0.084854677319526672,0.047071307897567749,-0.030846593901515007,0.098413594067096710,-0.067932426929473877,-0.145216137170791626,-0.044283565133810043,-0.073529466986656189,-0.103944212198257446,0.087925963103771210,0.001304439501836896,0.007891476154327393,-0.126557439565658569,-0.115759879350662231,-0.003128479234874249,0.021012291312217712,0.003977627493441105,-0.118579782545566559,-0.025640623643994331,-0.025250751525163651,-0.033066324889659882,-0.047933496534824371,0.005378875881433487,0.132091656327247620,0.026329725980758667,-0.052754081785678864,-0.078577347099781036,0.135039582848548889,0.118847161531448364,0.017138138413429260,-0.057185504585504532,-0.042884707450866699
0.005125066731125116,-0.115778237581253052,-0.080083951354026794,0.005249943118542433,-0.055938005447387695,0.022543542087078094,-0.017866905778646469,0.028604894876480103,-0.059037007391452789,0.086902610957622528,0.056926306337118149,-0.105065792798995972,0.106564685702323914,-0.077305227518081665,-0.059020556509494781,0.071757227182388306,-0.041295327246189117,-0.042581517249345779,-0.040014419704675674,0.005309110973030329,-0.025121850892901421,0.006037381477653980,0.005204109940677881,0.034378856420516968,-0.025094233453273773,-0.137845680117607117,0.040480580180883408,0.024666704237461090,-0.013391576707363129,0.091280430555343628,-0.050675846636295319,0.090475849807262421,-0.052885327488183975,-0.035711146891117096,-0.048651456832885742,-0.011665730737149715,-0.089895054697990417,0.017666785046458244,0.020111192017793655,-0.081340052187442780,0.024001324549317360,-0.022549329325556755,0.017281468957662582,-0.043008770793676376,0.039159402251243591,0.041309121996164322,-0.046384241431951523,-0.019260112196207047,0.020160937681794167,0.106471560895442963,-0.037318564951419830,-0.021641125902533531,0.037790119647979736,0.040419727563858032,0.001336075016297400,-0.065294750034809113,-0.043913472443819046,0.013057875446975231,-0.016443932428956032,-0.120373860001564026,-0.044185061007738113,0.051066834479570389,0.000490330508910120,-0.020593775436282158,-0.065726630389690399,0.037586424499750137,0.070853576064109802,0.006697333417832851,-0.054181069135665894,-0.075636908411979675,-0.051989104598760605,-0.076121948659420013,-0.090930998325347900,-0.042600527405738831,0.034687507897615433,-0.079557955265045166,0.097698397934436798,0.061199847608804703,0.013639744371175766,0.058347962796688080,-0.014525289647281170,0.026105154305696487,0.116665087640285492,0.022799652069807053,-0.060796517878770828,0.097917065024375916,-0.080111175775527954,0.037046514451503754,-0.024500120431184769,0.015803828835487366,0.059307541698217392,-0.203476637601852417,-0.048966255038976669,-0.068848408758640289,0.082267008721828461,-0.074436232447624207,0.028801120817661285,0.014010115526616573,-0.000540635082870722,-0.073025889694690704
0.019082052633166313,-0.081825084984302521,-0.059744752943515778,0.009875342249870300,-0.171233773231506348,0.047177128493785858,0.051659740507602692,0.184265479445457458,-0.082369089126586914,-0.104041710495948792,-0.019271418452262878,0.065554998815059662,-0.049852117896080017,-0.240084946155548096,0.050592482089996338,0.046522129327058792,0.147383481264114380,0.014737338759005070,0.017255606129765511,-0.056085858494043350,0.021481227129697800,-0.089543715119361877,0.060037203133106232,-0.100285843014717102,-0.007200600113719702,-0.221193328499794006,-0.129599347710609436,0.108794212341308594,-0.049822576344013214,0.018689174205064774,-0.038264662027359009,-0.023571249097585678,0.035243477672338486,-0.125486984848976135,-0.196365505456924438,0.058340329676866531,-0.202362939715385437,-0.019254606217145920,0.164396733045578003,0.015999199822545052,-0.065970525145530701,-0.235815390944480896,0.005641029682010412,-0.000406479055527598,0.048491869121789932,-0.032253257930278778,0.011332412250339985,-0.034234739840030670,0.122488774359226227,0.026810897514224052,0.044774580746889114,0.039318718016147614,-0.028498904779553413,0.052439771592617035,0.163162216544151306,0.000114220223622397,-0.054972082376480103,0.024702576920390129,-0.113136515021324158,-0.054946880787611008,0.053850628435611725,0.095404103398323059,-0.022420385852456093,-0.015610225498676300,-0.006603283341974020,-0.012622844427824020,0.121405631303787231,0.009027292020618916,-0.032877348363399506,-0.017897883430123329,-0.048513278365135193,0.016394166275858879,-0.068965479731559753,-0.087903000414371490,-0.098590314388275146,-0.058792922645807266,0.011625643819570541,-0.071570336818695068,-0.076553575694561005,0.075147256255149841,0.003494670148938894,-0.050661977380514145,0.023802684620022774,-0.008419703692197800,-0.010915949009358883,0.086066797375679016,0.056252364069223404,0.069575674831867218,-0.164550587534904480,-0.057651296257972717,0.002108261222019792,-0.103199407458305359,0.009695789776742458,0.206810608506202698,0.037196073681116104,0.026635525748133659,-0.071045510470867157,-0.023700291290879250,0.029650421813130379,-0.074069105088710785
-0.075770422816276550,0.033642623573541641,0.166479870676994324,0.047458723187446594,-0.191809624433517456,-0.150041863322257996,-0.234412208199501038,-0.235553994774818420,0.276101291179656982,-0.022291531786322594,-0.000676197290886194,0.086486771702766418,-0.299820333719253540,0.023684399202466011,-0.114131383597850800,0.013417103327810764,-0.009990707039833069,-0.033667750656604767,0.016195731237530708,0.049020864069461823,0.134362518787384033,0.022583194077014923,-0.055790312588214874,0.014304425567388535,0.049502439796924591,0.053353454917669296,0.045285910367965698,0.103325970470905304,-0.181942716240882874,-0.210247233510017395,0.084799163043498993,0.038127772510051727,-0.017064107581973076,-0.090207770466804504,0.115009024739265442,0.013774842023849487,-0.130867227911949158,-0.223528712987899780,0.165003240108489990,-0.031940162181854248,0.087621413171291351,-0.036812577396631241,-0.080658756196498871,0.027636580169200897,0.109577208757400513,-0.013558035716414452,-0.214184477925300598,-0.033365041017532349,-0.047117475420236588,-0.031130218878388405,0.020025283098220825,-0.252381503582000732,0.014636739157140255,0.079912379384040833,0.116088077425956726,-0.189736425876617432,0.014296040870249271,0.005069685168564320,0.090296223759651184,0.074708640575408936,0.191015109419822693,-0.069887742400169373,0.070244692265987396,0.046255577355623245,0.028813421726226807,0.016908288002014160,-0.070599563419818878,-0.046460680663585663,-0.073321372270584106,0.047813605517148972,0.014394815079867840,0.020718879997730255,0.141668274998664856,0.120367974042892456,-0.132441654801368713,-0.029515407979488373,-0.068198025226593018,0.085848540067672729,0.204858496785163879,-0.373558551073074341,0.062533989548683167,-0.230575576424598694,0.125445470213890076,-0.028407670557498932,-0.005435422062873840,0.022010628134012222,0.204005911946296692,0.046275977045297623,0.145522579550743103,0.073522381484508514,0.138585045933723450,0.040928196161985397,-0.053276952356100082,0.114744119346141815,-0.158308744430541992,0.005192246753722429,-0.075701691210269928,0.015085264109075069,-0.075350753962993622,-0.006118690595030785
-0.017585426568984985,0.013412447646260262,0.115093924105167389,-0.053095642477273941,-0.013664044439792633,-0.031533647328615189,-0.065942592918872833,0.011486378498375416,-0.055982992053031921,0.076225928962230682,0.031672000885009766,0.089163087308406830,-0.103819258511066437,-0.040204860270023346,0.060092326253652573,0.091853111982345581,-0.048942167311906815,-0.096739411354064941,0.009920892305672169,-0.110200963914394379,0.016813224181532860,0.094299055635929108,-0.159704163670539856,0.079185783863067627,0.015009286813437939,0.074088327586650848,0.041793104261159897,0.112135477364063263,-0.172312051057815552,-0.091002538800239563,-0.093018755316734314,0.037730786949396133,-0.022651253268122673,-0.175902783870697021,-0.015717569738626480,0.034956183284521103,0.059911254793405533,-0.087722778320312500,0.006142716854810715,-0.031395677477121353,0.087225124239921570,0.000834558857604861,0.009027888998389244,-0.029024209827184677,0.000008070036528807,-0.034194748848676682,-0.076390177011489868,0.044620614498853683,-0.056740883737802505,0.010950746014714241,-0.068822838366031647,-0.121651560068130493,-0.088601872324943542,0.031303886324167252,0.039493240416049957,-0.023940382525324821,-0.030969168990850449,-0.048981275409460068,0.040103264153003693,0.161369502544403076,-0.015437287278473377,-0.020710283890366554,0.002726688748225570,-0.020083393901586533,0.003238869365304708,-0.009332348592579365,-0.060399796813726425,-0.051245335489511490,0.001202104147523642,0.007529930211603642,0.030167734250426292,0.035504046827554703,0.119773186743259430,0.040091730654239655,-0.000977782066911459,0.029291765764355659,-0.043104302138090134,0.071050293743610382,0.077564544975757599,-0.130996406078338623,0.111548207700252533,0.015067335218191147,0.007772839628160000,-0.036699704825878143,-0.002867425093427300,-0.019887674599885941,0.109459586441516876,0.054884124547243118,-0.034878164529800415,-0.026391515508294106,-0.012052631005644798,0.143947094678878784,0.017571315169334412,-0.061256453394889832,-0.041779693216085434,0.095814503729343414,-0.026265997439622879,0.011478589847683907,0.029535366222262383,-0.017955977469682693
0.111114971339702606,0.028877792879939079,-0.022364962846040726,-0.048441808670759201,-0.065709754824638367,0.004248001612722874,-0.142678573727607727,0.006214036140590906,0.182208046317100525,-0.214927837252616882,0.009034060873091221,0.060655482113361359,-0.059493262320756912,-0.207312360405921936,0.052216429263353348,-0.021565211936831474,0.207687422633171082,-0.075632251799106598,-0.070671334862709045,0.020233789458870888,0.001498970668762922,-0.105711802840232849,-0.030234063044190407,0.136413425207138062,-0.086677417159080505,-0.151870921254158020,0.047602735459804535,0.072618186473846436,0.060736287385225296,0.007529315538704395,-0.067621096968650818,0.025817357003688812,0.020999822765588760,0.021275512874126434,0.035732682794332504,-0.091963373124599457,-0.079227544367313385,-0.123198144137859344,0.131752878427505493,-0.019071474671363831,-0.058245956897735596,0.051955200731754303,0.099286273121833801,-0.064712800085544586,-0.049535106867551804,-0.043207079172134399,-0.037637982517480850,-0.070616751909255981,0.023278214037418365,0.085847415030002594,0.004181455820798874,-0.000840766762848943,0.074875943362712860,0.133718818426132202,0.066584944725036621,-0.048357635736465454,0.018037181347608566,-0.039837062358856201,-0.024022608995437622,0.026566937565803528,0.099491767585277557,0.058852560818195343,-0.027562206611037254,0.013712755404412746,0.105458915233612061,0.106050089001655579,-0.046206068247556686,-0.009839779697358608,-0.106167644262313843,-0.030752314254641533,-0.081491954624652863,-0.053678184747695923,0.008164647966623306,-0.170469701290130615,-0.030230058357119560,-0.139734208583831787,0.115131534636020660,0.073807358741760254,0.098351046442985535,-0.027119852602481842,0.106859065592288971,-0.040183596312999725,-0.041028082370758057,-0.019598474726080894,-0.077287413179874420,0.079124040901660919,0.013884934596717358,0.072964727878570557,-0.165943562984466553,0.157608911395072937,0.021968927234411240,0.092056080698966980,0.032041583210229874,0.109550587832927704,0.039937701076269150,-0.100492767989635468,-0.045810073614120483,0.019277129322290421,0.050245281308889389,-0.078951716423034668
-0.000685917621012777,-0.023909466341137886,-0.016014516353607178,0.030470980331301689,-0.081911154091358185,0.004965453408658504,-0.095646694302558899,-0.028963074088096619,-0.017485972493886948,-0.206024542450904846,0.069780580699443817,-0.051509410142898560,-0.197308644652366638,0.034618217498064041,0.103330753743648529,0.049378525465726852,0.118409849703311920,-0.004353521857410669,-0.022860791534185410,0.121430173516273499,0.043788198381662369,0.065667159855365753,0.087938137352466583,-0.013126016594469547,0.035423558205366135,0.043792385607957840,-0.044412650167942047,0.070587292313575745,0.208683177828788757,-0.005494914483278990,0.079825848340988159,-0.053274992853403091,0.019418036565184593,0.105898775160312653,-0.143832892179489136,-0.018637534230947495,0.047598026692867279,-0.168089747428894043,0.216242834925651550,-0.078592941164970398,0.005823757965117693,-0.034344382584095001,-0.017711460590362549,0.004058423452079296,-0.124839417636394501,-0.021677497774362564,-0.050195537507534027,-0.064513832330703735,0.169529244303703308,0.051119148731231689,0.006497859954833984,0.099908232688903809,-0.025787541642785072,0.090988382697105408,0.222668230533599854,-0.014389093033969402,-0.021491440013051033,-0.001429927651770413,-0.017107632011175156,0.057143054902553558,0.124699644744396210,0.022737972438335419,-0.028004018589854240,-0.013805111870169640,0.032496586441993713,-0.032256867736577988,-0.036869581788778305,0.000335392513079569,-0.169723093509674072,-0.048290431499481201,-0.056177005171775818,0.033819373697042465,0.033108040690422058,0.000897967081982642,-0.028763689100742340,0.120771177113056183,-0.241664052009582520,-0.093835972249507904,0.002134194597601891,0.067658804357051849,0.119440689682960510,0.069713428616523743,-0.029749989509582520,0.147157415747642517,0.008806433528661728,0.059207413345575333,0.143519133329391479,0.008099879138171673,-0.140672996640205383,0.025131326168775558,0.033364824950695038,-0.201210692524909973,0.020741475746035576,0.148685172200202942,-0.085806697607040405,0.026394123211503029,-0.087933555245399475,0.049042630940675735,-0.024292962625622749,-0.050763610750436783
