0.005884527694433928,0.037338707596063614,-0.086864456534385681,-0.009230319410562515,0.056662406772375107,-0.007665903307497501,-0.021849127486348152,0.111767441034317017
-0.047756969928741455,-0.028594303876161575,0.015125863254070282,-0.076337344944477081,0.119309164583683014,0.036184772849082947,0.079892188310623169,0.068044699728488922
-0.064482890069484711,0.023382401093840599,0.040830083191394806,-0.199808821082115173,-0.067362219095230103,-0.060305401682853699,0.152081221342086792,0.057686623185873032
0.021136621013283730,0.047885432839393616,-0.084246262907981873,0.026997573673725128,0.109735116362571716,-0.028679892420768738,-0.184391021728515625,0.008372952230274677
0.083841316401958466,-0.021755477413535118,-0.045428015291690826,0.000413379253586754,-0.002695134375244379,0.023398395627737045,-0.061141036450862885,0.043702185153961182
0.001139991334639490,-0.070671379566192627,0.093481600284576416,-0.023970978334546089,-0.205156028270721436,-0.007352422922849655,0.023544076830148697,0.048711590468883514
-0.089812733232975006,0.003869231324642897,-0.152559369802474976,-0.002276631537824869,-0.023981114849448204,-0.003802985651418567,-0.067497916519641876,-0.152072891592979431
-0.036486439406871796,0.061238795518875122,0.031085856258869171,0.077105239033699036,-0.153351262211799622,0.057044975459575653,-0.097440622746944427,-0.151748180389404297
0.004395737312734127,-0.101614855229854584,0.104838863015174866,0.132930219173431396,0.008008235134184361,0.007833422161638737,-0.038569085299968719,-0.102265760302543640
